2030 32
600519 0.1486819 -0.046024874 0.32630473 -0.33707327 -0.26570523 0.1597355 -0.0665864 0.18859579 -0.17292826 0.1305587 0.054125387 -0.008683013 -0.18702166 0.4987459 -0.05272756 0.22399008 0.5092632 -0.09705186 -0.13456899 -0.24600779 0.062472623 -0.2111139 0.306314 0.04935395 -0.010111589 0.09888872 -0.20382373 -0.30552033 0.31801134 0.36796743 0.25963622 -0.22826058
600276 0.29896092 0.1447734 0.07700586 -0.107323356 -0.20947303 0.07386428 0.122381896 0.20884782 0.108019784 -0.14262155 0.08311306 0.03508412 -0.2776422 0.44066548 -0.052818667 0.27020037 0.59323275 -0.12954342 0.09920381 -0.42704424 -0.20478272 -0.3704361 -0.025386337 0.14255978 -0.1992363 0.4708641 -0.0014392133 -0.26837146 0.006980586 0.20911653 0.18308322 -0.36267638
601318 0.06154549 0.05915307 0.15259908 -0.48020583 -0.004312515 0.039926447 -0.2583676 -0.05160582 0.055183165 0.25127614 -0.007043043 -0.10618869 -0.16061944 0.48271766 -0.06737617 0.2238117 0.6378668 -0.3383227 -0.1501592 -0.013742053 -0.10011524 -0.3253113 0.18863675 0.28019258 0.1372928 0.25228527 -0.257789 -0.3151495 0.20399892 0.36037946 0.18906954 -0.33331013
002475 0.08260531 0.41603145 0.42728588 -0.08339081 -0.10048798 -0.067321345 0.12959059 0.2799296 -0.15697065 0.06334638 0.28264964 0.1474698 -0.11394255 0.348603 0.2009326 0.5655845 0.4356045 -0.3280401 -0.11212063 -0.33044872 -0.055949245 -0.07511991 0.03026849 0.018738776 -0.5588994 0.22855465 -0.42270812 -0.16297051 0.04442162 0.09965968 0.39806744 -0.11223871
000002 0.11229254 0.29583994 0.61511976 -0.57306856 0.052378464 0.23781955 -0.274791 0.19376542 -0.18255636 0.35350287 0.20789668 -0.19529769 -0.1688046 0.40841973 -0.11556453 0.16804451 0.5317007 -0.032220915 0.0014291012 0.104932405 0.12709837 -0.3427539 0.14564796 0.48867777 -0.2262348 0.2983974 -0.27317744 0.13680844 0.028154222 0.23280762 -0.13275716 -0.10227395
000858 0.22994952 -0.04476523 0.26309144 -0.17813252 -0.3068475 0.104777284 -0.012618092 0.38768578 -0.29235935 0.18021084 -0.092119135 -0.08078469 -0.32257673 0.40150338 0.12303014 0.14969859 0.50141585 -0.36405307 -0.35985562 -0.3725302 0.026702916 -0.11416698 0.6266365 0.18883152 -0.1469287 0.0058455495 -0.13959663 -0.3095366 0.29444176 0.2930909 0.29549116 -0.14096563
000661 0.42716885 0.22416247 0.040125597 -0.027522737 -0.48641995 0.28369808 0.25905246 0.18275255 -0.020261627 -0.124330655 0.29906732 -0.06700947 -0.077691324 0.37329835 -0.16754468 0.34516603 0.54436773 -0.07459317 0.07933221 -0.509467 0.09556637 -0.2334663 0.32686526 0.07786382 -0.23643315 0.20890597 -0.030973295 -0.34018952 0.16859667 0.25293797 -0.004892759 -0.21915472
00700 -0.07357793 -0.1329137 0.095478214 -0.28600073 -0.012459874 0.07843163 -0.081872284 0.45203647 -0.65193856 -0.07271128 0.029440623 0.024477106 -0.37513328 0.98518443 0.007223922 0.3676453 0.11074499 -0.272793 -0.03222345 0.1338559 0.32128927 -0.15714663 0.35645106 -0.019481106 -0.39022815 0.21174082 -0.26153556 -0.14477281 0.16345048 0.20005238 -0.09109976 -0.085265525
600036 0.13848242 -0.09542677 0.32961652 -0.41524288 -0.09549349 -0.01870134 -0.16794376 -0.017162351 -0.030209647 0.42152923 -0.072558045 -0.12654187 -0.2598034 0.5094242 -0.04625031 0.15690337 0.6755544 -0.1670456 -0.433014 -0.21382694 -0.11450647 -0.3618056 0.15439248 0.21216199 0.11673725 0.2828608 -0.08317213 -0.53960294 0.09610642 0.28827915 0.017555134 -0.36679605
000063 0.4563174 0.6157109 0.2623769 -0.38866785 -0.15702991 0.48099113 0.06767071 -0.2341775 -0.25739697 0.28061822 0.123008996 0.19521041 0.04209482 0.28216884 0.0033892356 0.33090943 0.40507048 -0.3533928 0.2953186 -0.04790681 0.009658221 -0.30690774 -0.04801968 -0.23925325 -0.1317712 -0.032471083 -0.54713494 -0.08194333 -0.14295205 0.21947458 0.57107323 -0.29044643
300760 0.33832675 0.08262329 0.06636713 0.041007116 -0.28822452 0.2668264 0.15246344 0.25891277 -0.074392475 -0.3596072 -0.074844666 -0.085370384 -0.20374571 0.45689327 -0.029879428 0.36732966 0.72162247 -0.16939539 0.11765787 -0.3975383 0.079370216 -0.42902765 0.056968633 0.11342775 -0.24319474 0.3392688 -0.009338655 -0.32783616 0.2394642 0.30448127 0.1545961 -0.1502799
600887 0.110778116 0.1909105 0.5535421 -0.62862897 -0.03956787 0.20006415 -0.24152254 0.1969989 -0.03548138 0.15295193 0.015361741 -0.063911416 -0.23941647 0.26180494 -0.08339632 0.07305839 0.55570287 -0.2238636 -0.09887509 0.11766065 0.011365421 -0.63936394 0.39244735 -0.07145145 -0.04562797 0.199824 -0.25034362 -0.14379103 0.124791116 0.4286615 0.2817628 -0.2387878
000651 0.19060846 0.15171199 0.3741376 -0.3659449 -0.1552891 -0.1452025 0.060699288 0.40640604 -0.11746389 0.49876535 0.2039536 -0.16652079 -0.24685037 0.4644291 -0.16382124 0.3699242 0.47872862 -0.10591252 -0.2283653 -0.16628473 -0.003200731 -0.027284818 0.30815858 0.39188024 0.053312656 0.10642062 0.1154767 -0.21220458 0.35213864 0.23019622 0.3610355 -0.16460755
000333 0.0046502235 0.12987754 0.6946539 -0.5535794 -0.083107404 0.17071156 -0.1073672 0.4632179 -3.464226e-05 0.26279017 0.059932623 -0.19684166 0.06357772 0.31780836 -0.111696266 0.22171888 0.4551672 -0.2776501 -0.24341455 -0.20075366 0.28440514 -0.46771243 0.47324795 0.08520207 -0.2729395 0.2720694 0.07795621 -0.25931856 0.13262172 0.3534202 -0.0035180834 -0.2452276
601012 -0.077355176 0.40268365 0.1026167 -0.070532605 0.20072894 -0.2513369 0.15770575 0.536409 -0.26609823 0.25917333 0.13057303 -0.12867337 -0.3491427 0.46175668 0.20240577 0.4686967 0.38272583 -0.35171288 -0.05410288 -0.05034986 -0.40283942 -0.37505588 0.38353273 0.501611 -0.3251043 0.23269488 -0.33844236 0.069474116 0.20861053 -0.09262351 0.5036182 -0.07024749
600031 -0.015567046 0.18842314 0.21299301 -0.380808 0.2384856 0.13027109 0.02450902 0.15124035 -0.1294375 0.11266016 0.32832566 -0.32293263 0.040859416 0.47874635 -0.06897931 0.25908837 0.5401445 -0.1093612 -0.15144189 -0.10766408 0.040898934 -0.22754866 0.29998806 0.17683396 -0.4423689 0.31024277 -0.28496793 -0.27870196 0.2131115 0.26111576 0.17851616 -0.14634365
600048 0.24649814 0.22381634 0.51721436 -0.56592363 -0.046861153 0.121062465 -0.21838844 0.123611614 -0.041893788 0.36549738 0.14107017 -0.34034154 -0.123019576 0.44749224 -0.21952046 0.29792696 0.66392475 -0.11141755 -0.27246782 -0.12854254 0.14070109 -0.13550013 0.4731441 0.42329174 -0.2694476 0.28946382 -0.272904 -0.21755473 -0.29081544 0.26108605 -0.0010134 0.0405529
300413 -0.19753863 0.3032113 0.51738447 -0.18966065 0.33402392 0.37387753 -0.24447766 0.029559359 -0.2417739 0.20087326 0.12765503 -0.23985238 -0.19026238 0.7276387 0.30082995 0.17070991 0.33222577 0.013724637 0.056523763 -0.3696571 0.1327441 0.07763939 -0.20565951 0.4242071 -0.53390247 0.18190946 -0.24712752 0.010621987 0.37261403 0.37118834 0.008696884 0.30168003
300750 0.108387075 0.43352956 0.4549952 -0.003101665 -0.067924514 0.09920143 -0.0034007304 0.13322249 -0.4937623 0.043218188 -0.098822296 0.075288594 0.28668183 0.5187709 0.14857894 0.50228214 0.6819137 -0.09656567 -0.06683983 -0.45484594 -0.07088611 -0.16181223 -0.08652142 0.17987846 -0.10609729 0.5208862 0.08276206 0.20653512 -0.20026001 0.0047402265 0.7015781 0.37597325
300601 0.6836719 0.6249789 0.017779872 -0.22429644 -0.52377814 0.59886485 0.2613074 -0.29719397 -0.14371337 0.14879061 0.27940932 -0.028876297 -0.07841295 0.4386619 0.0048551927 0.39521617 0.53357095 -0.14438571 0.081017666 -0.4886935 -0.09550278 -0.07930008 -0.03112686 -0.26380917 -0.3815124 0.048036534 -0.012334541 -0.112684175 -0.12154782 0.18586147 -0.059586145 -0.3731909
000977 0.20534281 0.7612077 0.21832494 -0.14881891 0.19747584 0.32618815 0.21408293 -0.40692833 -0.0003485627 0.3182223 0.34762773 0.24252433 0.09325987 0.36683533 0.15012956 0.35469544 0.2415536 -0.46262857 0.237237 -0.27975327 0.4188792 0.024682334 -0.047031567 -0.013707265 -0.535587 0.22467384 -0.009563858 -0.13708162 -0.29817763 0.66397756 0.3868752 -0.2255154
601933 0.09887851 0.5252268 0.13555907 -0.6235379 0.17091618 0.18099871 -0.2110527 -0.22913009 0.19065166 0.18572077 0.328922 -0.3948265 -0.5277447 0.7994918 -0.014056202 0.1846429 0.32806012 0.072126724 0.32291248 0.042877942 0.34019276 0.025970265 0.04834981 0.437758 -0.568669 0.21195985 -0.010784223 -0.082538694 -0.043060116 0.49077067 0.07833436 0.47398424
603160 0.024513323 0.084921025 0.8178493 -0.022633879 -0.027418112 0.33862838 -0.27768794 0.047126275 -0.29113996 0.18261278 0.3156257 -0.02201439 -0.068784274 0.45305666 0.07138358 0.26014307 0.36255395 0.027247032 0.027811516 -0.43309906 -0.036416546 0.0775802 -0.47728747 0.45098424 -0.3868806 0.3770774 -0.5666564 0.35343516 0.6489449 0.14110515 0.083120115 -0.05967236
601166 0.16895935 -0.19659553 0.3128134 -0.4646668 -0.108088225 -0.06142866 -0.28119427 -0.17985988 0.18003257 0.5003986 -0.13945457 -0.072593786 -0.27436936 0.5389806 -0.0032388489 0.31600124 0.687397 -0.07540359 -0.41125888 -0.03810256 -0.20789018 -0.33229223 0.041558377 0.14164588 0.10778072 0.3858723 0.024869155 -0.55584145 -0.049784135 0.39081421 0.074947186 -0.47965255
300014 0.4725237 0.7433523 0.081938475 -0.10900231 -0.24624754 0.3801781 0.15814073 -0.43118456 -0.5538798 0.2678262 0.24302825 0.060693413 0.072269976 0.45031226 0.031123264 0.34736404 0.42905176 -0.12948388 -0.05493135 -0.3572185 -0.17020875 -0.154633 0.013765843 -0.16740523 -0.46873617 0.14848901 -0.026366116 -0.04602774 -0.37234342 0.32996812 0.3431563 -0.4294056
601899 -0.029516574 0.3241309 0.462835 -0.8404959 0.16295056 0.58238745 -0.32230234 -0.34666356 -0.28356382 0.06616238 0.27477944 -0.06408698 -0.06374954 0.55053043 -0.17514093 -0.035304494 0.31223696 0.091397405 0.38065845 -0.09930398 -0.07308924 -0.36661986 0.12739538 0.34599593 -0.080274835 0.21301702 -0.74169654 0.08833104 0.39429387 0.12925361 0.20349254 0.032565102
603259 0.50694084 0.050891392 0.20048092 0.07925028 -0.39359018 0.2084045 0.010898304 0.25544834 -0.10295797 -0.31852314 0.2528112 -0.07508846 -0.04590345 0.44075426 0.08815664 0.5151482 0.68170404 -0.039955076 0.2716905 -0.41791642 -0.072728306 -0.4432383 0.13780615 0.39920348 -0.23625737 0.22369993 0.06275544 -0.08293869 0.20638847 0.3539015 -0.08892801 -0.21080202
002714 0.040249653 0.03541036 0.51604027 0.061731156 -0.051304787 0.6672165 0.2313043 0.18792069 -0.13197084 0.22772805 -0.06456778 -0.106791675 -0.29995304 0.45398116 -0.09358912 0.58063567 0.40634674 0.31676152 -0.23927833 -0.5292424 0.334959 -0.20001182 0.2779226 0.34160104 -0.2195448 -0.39925936 -0.057758402 -0.6140983 0.1904626 -0.08237731 0.4177987 0.02396642
002007 0.17339559 -0.113927044 0.35982326 -0.22940978 -0.16103569 0.38432539 -0.5695237 0.09693192 -0.31808838 -0.20899665 -0.118903644 -0.025885308 -0.025235964 0.74260056 0.10491441 -0.19322348 0.23588206 0.19335388 -0.2946083 -0.44219643 -0.04364433 -0.07093073 0.18329668 0.67640036 -0.3667626 0.3906783 -0.50028527 0.28352714 0.38040236 0.31460106 0.17742585 -0.32607004
002415 0.062469333 0.44421318 0.77330256 -0.43693495 0.24040195 0.29683244 -0.18278787 0.4678143 -0.06086101 -0.1251099 0.04425163 -0.25692955 -0.14570539 0.46396515 -0.16371597 0.33139175 0.3860114 -0.26208535 -0.4213731 0.28097162 0.47926125 -0.48002008 0.41125304 -0.28084892 -0.34535775 0.35596135 -0.12412861 -0.038431995 0.008995931 0.39010364 -0.0097069945 -0.26339972
002555 0.038819533 0.22624561 0.4613824 0.12722531 0.07909576 0.033475284 0.1827723 0.11056365 -0.1714566 0.108538195 0.6197785 0.0930903 0.02825199 0.36045313 0.16514665 0.6394115 0.40552878 0.09068874 -0.10713991 -0.24750811 0.11392088 0.2571814 0.01158005 0.012076863 -0.40092766 0.32385018 -0.34417316 -0.24694243 0.29681075 0.7100479 0.34171897 0.02841055
03690 -0.092721425 -0.106963605 0.00031527347 -0.16972153 0.24884456 0.26741388 0.11487649 0.482871 -0.7692743 -0.094724044 -0.039379727 0.06655564 -0.4516129 0.9221331 -0.17306331 0.31218934 0.29958364 -0.36560598 -0.272383 -0.072835006 0.34410816 -0.10659592 0.31618336 -0.018181317 -0.28323495 0.2257951 -0.30895868 -0.12891111 0.26592422 0.1660226 -0.004748935 -0.2239442
700 HK 0.7737229 0.6494591 -0.612606 0.6648061 0.04410549 1.6870353 -0.7852478 0.3000585 0.15450385 0.4721763 0.7852658 1.6499653 0.0061489213 1.0451164 0.18808171 -0.07340197 -1.1347929 -1.1833204 -0.56776816 0.41996738 -0.27590626 -1.180685 -0.26485056 0.10177308 -0.2362413 0.9823058 0.6227864 -1.1139857 1.3446072 -0.525696 0.7840145 0.62246585
300015 0.4782282 -0.11364231 0.28229198 0.14300068 -0.5879283 0.42195588 0.102814384 0.178911 0.015881084 -0.364917 -0.0860049 -0.091151394 -0.07643088 0.3503593 -0.21997434 0.20296492 0.73638785 -0.17914675 0.16695979 -0.53234726 -0.0068390877 -0.42553285 0.3432824 0.3964973 -0.37982616 0.30041867 0.23787445 -0.30240703 0.27028897 0.35670474 0.30527568 -0.29993904
600585 -0.14653295 0.43408835 0.28872693 -0.23264074 -0.18947186 -0.10943053 -0.23466039 0.20442477 -0.19297181 0.25869 0.3770877 -0.017790917 -0.004627027 0.12060892 -0.11024952 0.376627 0.70329136 0.017520102 -0.25275168 -0.40572613 0.18964791 -0.34202924 0.45199528 0.28417766 -0.29106337 0.43567714 -0.3231231 -0.37642813 0.0930453 0.39126194 0.15416665 -0.42287543
002271 -0.004825011 0.4489185 0.06947091 0.05370928 -0.06126494 -0.05205717 -0.097339585 0.28856498 -0.032688733 0.1674913 0.3160854 -0.03942512 -0.49175048 0.22765706 0.55517775 0.4610413 0.70665693 -0.4174328 -0.21242566 -0.41893694 -0.00294547 -0.062482737 0.70119363 0.30958176 -0.36713487 -0.04525581 -0.7323046 -0.3828558 0.16387628 0.1295762 0.036102835 0.16325827
000001 0.17748016 -0.06641541 0.4162226 -0.39980328 0.025508953 0.03615575 -0.112491176 -0.067334354 -0.021630509 0.45239106 -0.04669507 -0.10651138 -0.32471788 0.46702468 -0.005392912 0.33239728 0.43970925 -0.030162156 -0.41362458 -0.39535514 0.068439275 -0.3116747 0.21860364 0.2989383 0.097010925 0.3766948 -0.07918591 -0.4337533 0.069373176 0.23251352 -0.117504604 -0.54048127
603986 0.29227313 0.73362887 0.5100811 -0.0056368504 -0.17830567 0.5276745 0.10798174 -0.39224842 -0.40990523 0.34471393 0.16115618 0.1894793 0.19548774 0.44670334 0.37146837 0.56506467 0.38916358 -0.04100519 0.22173087 -0.34107986 -0.07788455 0.15008236 -0.2282375 -0.30649534 -0.3622543 0.40125513 -0.23209181 -0.03802156 -0.16764732 0.016744776 0.30106428 -0.5354382
600703 0.4505218 0.8930122 0.12129229 -0.4140823 -0.25293684 0.5703475 -0.033927787 -0.5095097 -0.19896792 0.22207958 0.23562057 -0.026924504 -0.06892372 0.29926285 0.14288475 0.5885692 0.33110383 -0.22649147 0.15685678 -0.34755513 -0.15450805 -0.046203036 0.010517427 -0.18348281 -0.44000578 0.20393631 -0.30041632 -0.075510584 -0.28089032 0.15401712 0.14772357 -0.47014797
601398 0.018343855 -0.21605636 0.29605806 -0.54616517 -0.23874281 -0.038563732 -0.18741332 -0.45085737 -0.019524004 0.3146107 0.41501617 -0.2851031 -0.24088348 0.33850798 0.22638895 0.42902926 0.36807984 0.111964226 -0.8015899 -0.1247229 0.0051460685 -0.881424 0.19579555 0.0652053 0.0701794 0.44887564 0.007854188 -0.42532054 -0.22461206 0.19143957 0.06848262 -0.27923578
AMZN UW 0.97723424 0.4172629 0.06518886 0.61539024 0.32485878 1.7094461 -0.84698033 0.34198126 0.10396566 0.6248231 0.803357 1.3630059 -0.13117857 0.7013513 0.047510624 0.12738693 -1.2774916 -1.0132111 -0.64417267 0.2921734 -0.6009564 -1.117624 -0.27613485 0.20754921 -0.54624283 1.1905969 0.9993412 -1.2075531 1.4834694 -0.41075912 0.47516125 0.3335528
600030 0.15804197 -0.0015923675 0.37089828 -0.53652793 0.22440779 0.0344757 -0.032392774 -0.03851457 0.042044822 0.5502955 -0.005891445 0.012781136 0.20320311 0.60329074 -0.07225505 0.17028798 0.6333379 -0.46838006 -0.30473074 -0.3659285 0.22712472 -0.44278693 -0.04184862 0.38421312 0.40726665 0.44712916 -0.22486888 -0.34219295 -0.3202895 0.3507726 -0.0052842167 -0.31223303
000568 0.12161342 -0.17950837 0.4193075 -0.30082205 -0.47271562 0.15688537 0.0015937276 0.29526308 -0.35607788 -0.03953101 -0.10060834 0.26259422 -0.14796802 0.74028957 0.07581939 -0.03726965 0.18650801 -0.16409142 -0.38250118 -0.2675093 0.19106954 0.12278111 0.8423251 0.41997802 -0.2008012 0.08114488 -0.018695977 -0.16975495 0.36802378 0.21278025 0.51875603 -0.36674383
002624 0.36005414 0.62550175 0.52672046 -0.21664228 0.19697595 -0.048246767 -0.16639762 0.17299291 0.13882244 0.49197513 0.22678585 -0.2081654 0.030228741 0.5702799 0.09867376 0.20993838 0.09975785 0.10623297 0.21210365 -0.33102307 0.50703347 0.15704967 -0.04853574 0.019473435 -0.31320187 0.12828442 0.016549636 -0.3617863 -0.041860163 0.7641941 0.4795574 0.53294307
600570 0.09750931 0.3856574 0.4744559 0.021494953 -0.07424331 -0.027069539 -0.08449098 -0.039243493 -0.28820863 -0.20417452 0.2865805 -0.048716705 0.074941866 0.87891895 0.25951275 0.75244915 0.3416552 -0.4457529 -0.35790366 -0.15770766 0.44818255 -0.35974708 -0.16648857 -0.028359655 -0.0013771479 0.0011707168 -0.12176258 0.11817547 -0.011028813 0.52990514 0.34434134 -0.17643613
002460 -0.3307363 0.251512 0.7938643 0.0049943672 0.14203538 0.51271945 -0.18589899 -0.09311483 -0.40202934 0.20283924 -0.10437236 -0.057665166 0.3290773 0.6891259 -0.021439923 -0.08634449 0.47167444 0.0071710455 -0.089907765 -0.6672916 0.016512692 -0.35063377 -0.2562688 0.5796868 -0.10144994 0.6633418 -0.5074282 0.37560663 0.053507034 0.11854664 0.29470065 0.20931874
300529 0.76082 0.75429755 -0.037246544 -0.17088413 -0.6005229 0.47356775 0.32321525 -0.02159499 -0.22154002 -0.035003986 0.37277102 0.059258834 -0.1269453 0.43663105 0.15636513 0.29410985 0.3847971 -0.1107762 0.06563562 -0.5638283 -0.05708324 -0.18914473 0.002241964 -0.20391624 -0.3541189 0.040639896 -0.17057914 -0.27396005 -0.2261996 0.20318231 -0.12778741 -0.42358366
600588 0.19389988 0.84510034 0.4213189 -0.021611284 0.15420851 0.5651493 0.2537203 -0.3712804 -0.4371474 -0.012843967 0.17640206 0.04440541 0.047784775 0.6547204 0.37924126 0.62494195 0.283926 -0.14311764 -0.099084534 -0.28354847 0.20448126 0.011234443 -0.043960273 -0.31506267 -0.15009959 0.45926794 -0.12932664 0.20653984 -0.18383884 0.19277371 0.25029 -0.52150834
688111 0.1435507 0.3749465 0.8167276 0.2160589 -0.4436562 -0.14351574 -0.1970661 -0.15658185 -0.48147905 0.20385237 0.15763561 0.34639436 -0.20633467 0.3272675 0.2760862 0.70753783 0.21514155 -0.033361986 0.005657602 -0.37685755 0.22267775 -0.16242065 0.05377987 -0.17253849 -0.33559898 0.17940824 -0.5713618 -0.28342497 -0.11594079 0.20499972 0.48129204 -0.040861417
GOOGL UW 0.9892997 0.5037104 0.0801583 0.6255447 0.23593622 1.7385386 -0.8250725 0.35970643 0.06183004 0.6002471 0.85518193 1.3603294 -0.16013877 0.67447215 0.06298259 0.15943818 -1.2595809 -1.0241971 -0.6422944 0.24295633 -0.6415557 -1.0544062 -0.26005548 0.12575921 -0.51791257 1.140421 1.0464455 -1.161938 1.4385024 -0.40408802 0.51851267 0.39677903
002127 0.08523881 -0.1492408 0.58594453 -0.0976793 0.15026389 0.4853405 0.25895828 0.2950579 -0.07482968 0.43356758 0.421531 -0.1732145 -0.15822951 0.36428106 0.22822131 0.7801621 0.5391868 0.25730655 -0.360043 -0.49132186 -0.16130252 0.105800696 0.099666975 0.22798435 -0.2612276 -0.194654 -0.24021944 -0.35083184 0.23576128 0.38765264 0.02937039 0.31664675
MSFT US 0.95344144 0.008686193 -1.1693002 0.24046886 -0.49783614 1.5728532 -0.64277226 -0.17553212 0.47727603 1.688192 0.39305806 1.5783259 -0.25287282 1.6438562 0.30151883 0.3094964 -0.8779831 -0.5444239 -0.18555197 0.07867331 -0.29309177 -0.32033733 -0.41586232 0.6487103 0.042263113 0.9101467 0.017694002 -0.9863379 1.4484103 -0.7242605 0.42192465 0.9800475
ADBE UW 0.94665134 0.5706819 0.027177775 0.5448681 0.40395975 1.7752397 -0.86030734 0.2582864 0.13209876 0.45588654 1.0075566 1.491982 -0.38199985 0.69158053 0.075692564 0.21496111 -1.1824238 -1.0749301 -0.49292663 0.39389357 -0.52239317 -1.1099365 -0.147982 0.13228278 -0.34011936 1.0273472 0.9268253 -1.0790434 1.5864382 -0.4308562 0.42449316 0.53099024
002821 0.35098898 0.17354248 -0.13698384 0.24921857 -0.51498556 0.24960089 0.3030139 0.039437037 -0.008662439 -0.4513184 0.27838254 -0.19773725 -0.18590815 0.2760946 -0.11073992 0.60374856 0.64966476 -0.16394217 0.3754789 -0.26330206 0.23561954 -0.47462368 0.08369177 0.4668861 -0.35118863 0.56805503 0.14298087 -0.32953572 0.17306548 0.44758987 0.1585047 -0.2911913
FB UW 0.9937193 0.4967375 0.08174304 0.58550256 0.33282608 1.6807203 -0.81616056 0.33080444 0.096281104 0.62950927 0.88060725 1.389069 -0.23164324 0.70086455 0.13355277 0.14102598 -1.2342961 -1.0151961 -0.56408846 0.34371027 -0.5381753 -1.1134921 -0.2299047 0.09815609 -0.52032554 1.1082073 1.0069445 -1.1682625 1.5008554 -0.4353636 0.46587893 0.39418525
BABA UN 0.9802473 0.54679006 0.02968029 0.4981394 0.3568244 1.8077468 -0.8537777 0.27953032 0.10939401 0.4580282 1.0080665 1.5028957 -0.36101452 0.6618275 0.1500314 0.1673834 -1.156406 -1.0343616 -0.5495615 0.41253063 -0.48670214 -1.1197597 -0.17953286 0.13834113 -0.39104497 1.0238258 0.9132617 -1.0544999 1.5862243 -0.45340893 0.3842405 0.51107615
002142 -0.08854541 -0.0821309 0.28144246 -0.34644037 -0.35267857 0.22785224 -0.08506303 0.13947633 -0.11728531 0.2798369 0.019786984 -0.21157718 -0.15710428 0.68990225 0.13797294 0.610562 0.75781786 -0.2927822 -0.33194283 -0.3245757 0.07877606 -0.21348934 0.20291913 0.107862346 0.22454137 -0.00052938244 -0.24573356 -0.47507706 0.050229672 0.31382793 -0.19771618 0.011526356
600309 -0.06410932 0.48681223 0.025055388 -0.07780548 0.27414083 -0.238172 -0.0036907082 0.40649092 -0.42526743 0.27143356 0.18441254 -0.2993938 -0.32996285 0.4271782 0.45185524 0.046158113 0.65851474 -0.53663325 -0.18107866 -0.119217075 -0.26817098 -0.25699082 0.43206206 0.29597974 -0.3329075 0.11246574 -0.6520025 -0.49286422 0.39142776 0.091800064 0.28875682 0.029982943
002027 -0.068392485 0.58902717 0.7705613 -0.60968256 0.35504705 0.19196615 -0.32872635 0.35999277 0.17359227 0.34586293 0.10366652 -0.34282237 -0.15616696 0.48133343 0.113355555 -0.09731306 0.20538686 -0.1581621 0.053006772 0.17989133 0.64329576 -0.2465996 0.18830958 -0.07108177 -0.7890259 0.4590804 0.22788353 -0.20599148 -0.11938532 0.6690231 0.041118708 0.28754535
601668 0.2364252 0.21029738 0.5832851 -0.24652883 0.29368392 0.25977904 -0.6256276 0.06512727 -0.061575845 0.08655137 0.5523702 -0.12119988 -0.44212136 0.29182 -0.4222766 0.10870837 0.8592168 -0.06333837 -0.58922607 -0.09986416 -0.20274372 -0.13469285 0.4006548 0.29476178 0.34424287 0.32123452 0.1513274 -0.29008043 -0.2643555 0.2165515 0.02781584 -0.43435898
300454 -0.24536273 0.4276491 0.85043067 -0.104826346 0.03477065 0.698064 -0.080630094 -0.10937001 -0.3007264 0.0010549722 0.009171646 0.026500935 0.19149399 0.7484901 0.27083975 0.2838281 0.31855106 0.29395002 -0.121783756 -0.3092912 -0.059725884 -0.023369942 -0.13703528 0.49941757 -0.17038432 0.6388873 -0.52931106 0.55667996 0.43005887 0.11604154 -0.04798503 -0.2380959
000938 0.20082438 0.72152954 0.1927526 -0.26767343 0.08197147 0.4796788 -0.035680223 -0.6529479 -0.5135012 0.2025901 0.15154703 -0.059078876 -0.23670484 0.7404692 0.07581417 0.46901503 0.16685332 -0.38039345 0.41021916 0.02179224 -0.038702007 -0.016611448 0.032404464 0.13138655 -0.488603 0.07929992 -0.28309092 -0.35493258 -0.3471956 0.18096916 -0.16130693 -0.24852936
300003 0.7972312 0.16809276 0.106226355 -0.21634331 -0.031239921 0.32292378 0.43548864 0.5124164 0.1834923 -0.4650873 0.14959493 -0.14028764 -0.22950397 0.38033754 0.44799602 0.67489004 0.62948406 0.12573388 0.27272832 -0.19018637 0.2932836 -0.32345635 -0.13784362 0.35977566 0.14602153 0.56114835 -0.13365528 -0.33713853 -0.103712685 0.17719951 0.12730357 -0.009476295
002352 0.3614553 0.18093373 0.057629876 -0.47794282 0.28468987 0.05023258 -0.93258935 -0.05999477 0.2429699 -0.25152358 0.14161466 -0.2879138 -0.2057819 0.7302416 0.1362289 0.6734457 0.34435698 0.001903853 -0.2524865 -0.30497605 0.0867809 -0.12761074 0.2373231 0.36025056 -0.4862108 0.023170505 -0.46339095 0.22558887 0.03841447 0.207834 0.36198792 -0.12206757
601088 0.1871071 0.13399716 0.22218244 -0.74113435 0.3439202 0.37528 -0.52067345 0.10414615 -0.18966357 0.47153428 0.5752629 -0.13596131 -0.12245249 0.40295509 -0.03820718 0.45314917 0.73515797 0.45774433 -0.45521793 -0.16208644 -0.055881936 -0.38142076 0.34734726 0.5276718 -0.055318195 -0.23603144 0.23694366 -0.24042974 -0.21353947 0.13921048 -0.10587119 -0.084172964
CRM UN 0.92265534 0.570336 0.042912032 0.5467123 0.33483666 1.7941937 -0.898573 0.25153658 0.11328849 0.4502455 1.0318338 1.4676259 -0.38117188 0.6760375 0.06364273 0.12900068 -1.1347136 -1.0080317 -0.5155845 0.32501438 -0.5235531 -1.1088237 -0.18774727 0.10950239 -0.43600208 1.0669807 0.9747664 -1.0875396 1.5809617 -0.43810818 0.39164668 0.5602246
002311 -0.039843272 0.22844018 0.75339097 -0.06113803 -0.06293277 0.64749885 -0.13731693 -0.0680862 -0.39994216 0.107162155 -0.11654189 -0.20329262 -0.085118495 0.4767834 0.018544978 -0.13914067 0.50168455 0.25409588 -0.2011161 -0.36242568 0.01586224 -0.22608925 -0.061800454 0.69882286 -0.2899078 0.21505544 -0.42967272 0.019503886 0.6979089 -0.032945216 0.008276934 0.061644413
600183 0.06852214 0.4111114 0.58315605 -0.051172752 -0.36883858 -0.18846172 -0.028304147 -0.11376898 -0.33523047 0.3636672 0.7288517 0.2608504 0.16142078 0.43030888 0.105437666 0.4975016 0.49492723 -0.6422926 0.09363218 -0.43839958 0.55452377 -0.36952537 -0.46208364 0.11563532 -0.1653074 -0.08232289 -0.4648037 -0.058307733 -0.043638118 0.044101574 0.68266886 -0.029468222
601688 -0.064031154 0.11419671 0.4365569 -0.402585 0.11403211 0.045709707 -0.03689726 -0.032897227 0.12082804 0.45108774 0.19855426 0.0008744573 0.39015266 0.6528495 -0.25262943 0.12768514 0.67229176 -0.67274064 -0.3562432 -0.4146745 0.2040021 -0.23214132 -0.049664084 0.48202392 0.42767385 0.43839735 -0.33119816 -0.4028976 -0.22541296 0.41898882 -0.013284165 -0.28346473
AAPL US 0.8292962 0.068605825 -1.2266937 0.21194692 -0.5463871 1.6650301 -0.57681197 -0.17082265 0.46029517 1.6540328 0.5106 1.5729332 -0.2964181 1.8568592 0.47152573 0.47448784 -0.7663123 -0.3265945 -0.18677384 -0.069781385 -0.36535472 -0.093751304 -0.4298782 0.5558778 0.28513318 0.99917084 0.013189797 -0.86541647 1.3791113 -0.79025793 0.3655892 1.0153723
603288 -0.20742343 0.4701505 0.29881212 -0.11854028 -0.20309193 -0.2630897 0.31873482 0.4121597 0.43427977 -0.05149552 -0.12882507 0.2765321 -0.5043659 0.84857666 -0.11401375 0.5010407 0.26735872 -0.1322396 -0.2094136 -0.35463217 -0.4983831 -0.556992 -0.0072595254 0.35820043 -0.46513504 0.26115155 -0.1752125 -0.004191717 0.15041733 -0.06855473 0.5614205 -0.33477807
002410 0.26275256 0.6660817 0.4787857 -0.10967738 0.11227426 -0.010188746 0.26786795 0.088809974 0.1658928 -0.38676262 -0.36938995 0.021222692 -0.0811399 0.8309465 0.24105844 0.9421664 0.51289624 -0.3863509 -0.46730825 -0.2333613 0.19524488 -0.26055804 0.02722026 0.07617857 -0.18321432 0.2985455 -0.16241552 0.12967284 0.25516316 0.17930672 0.28924686 -0.050764605
601939 0.2352387 -0.017302964 0.30855855 -0.79768354 0.1138256 0.06771154 -0.3257314 -0.06337839 -0.3026315 0.6397736 0.44832584 0.18102442 -0.37858424 0.23807111 -0.15564285 0.099915355 0.92033494 0.31670415 -0.59587276 -0.18624763 -0.13761471 -0.525744 0.10241912 0.15187185 0.08015614 0.3651786 0.18710007 -0.37400985 -0.25718677 0.22071251 -0.0775368 -0.43505633
600276 SH 0.2276665 -1.0116029 -0.25228626 1.0743634 0.28511918 2.4113214 -0.77765834 0.8583588 0.945335 1.7841018 1.2515299 0.7817991 -0.5247365 1.2871087 0.45240957 0.18352182 -0.25295448 -0.04260964 0.45913187 0.86394143 -0.70076895 -1.0470129 0.6433641 -0.2856176 -0.32612216 1.8042743 -0.06701242 -0.16160569 -0.36840555 0.36606714 1.1581974 0.5273654
02269 0.17894597 0.10261325 0.26089412 -0.40320894 -0.12204786 0.2825002 0.026380403 0.39717796 -0.78837466 -0.35777807 -0.3195179 0.30985564 -0.53528005 0.9023711 0.03423638 0.09554287 0.26718053 -0.33219302 -0.39693847 0.027287425 0.4693024 -0.007868432 0.4436048 0.042921323 -0.18643785 0.23284131 -0.054977797 -0.019876167 0.26747602 0.16209275 0.26085088 -0.36923933
002050 -0.12539837 0.88529646 0.39721632 -0.2823658 0.08340106 0.10599305 -0.3984628 0.06803568 0.23121406 0.24753341 -0.039179325 -0.19849835 -0.02124342 0.8846807 0.5280802 -0.117580205 0.55301327 -0.033106282 -0.08943373 -0.59489805 0.29939857 0.06559595 -0.014610376 0.17126459 -0.6605352 0.4354844 0.3653625 0.23433201 -0.34470117 0.32136402 0.38328573 0.83677834
AMZN US 0.6947265 0.35032228 -1.5139323 0.7245284 -0.5258227 1.6821439 -0.66630805 0.077369586 0.53415865 1.2221901 1.1381751 1.3018099 -0.55461717 1.6172464 -0.12751445 -0.052127313 -1.0736241 -0.63999677 -0.6940546 -0.32608935 0.035819344 -0.27503374 -0.41411713 0.70092887 0.09045679 0.9963499 -0.16819511 -1.0711739 0.9254318 -0.56435615 0.459679 0.66487277
600406 -0.093049474 0.28586915 0.74651027 0.058992576 0.10208389 0.4090339 -0.26989004 -0.022922417 -0.41165444 0.2552727 0.09075678 -0.14335793 -0.18817519 0.5408844 0.0041762553 -0.12772903 0.2731517 0.21966942 -0.20624384 -0.3686462 -0.17196058 -0.18920666 -0.16743164 0.6782684 -0.16757104 0.5517086 -0.7877759 0.5152723 0.53232753 0.2495543 -0.10135291 0.03996158
600690 -0.0245056 0.40077853 0.5407209 -0.5402437 -0.3972371 -0.048012476 -0.41861388 -0.040061675 0.25828713 -0.17097908 0.033177648 0.15180685 0.04580869 0.47002208 0.31697738 0.26836494 0.08926912 -0.18344024 -0.3668272 -0.6154567 0.14928189 -0.1229946 0.9420625 0.5437738 0.041371804 0.17381759 0.2653405 -0.10970322 0.4145856 0.19556147 0.39651266 -0.018837841
300285 0.15539053 0.4306154 0.061150216 0.016932275 -0.090449326 0.01729835 0.23861706 0.5036336 -0.047164224 0.12906462 -0.002316609 -0.25961453 -0.47100863 0.13830902 0.7432627 0.39359772 0.7833146 -0.56320935 -0.28031352 -0.23380056 -0.3324133 -0.21796122 0.58933824 0.13447191 -0.102243274 0.29464388 -0.7406576 -0.20632622 0.35864958 0.28484395 0.1780993 0.21092056
300012 0.039811954 0.36189684 0.5864399 -0.2593114 0.073741965 0.53505456 0.5332007 0.30175978 -0.115826085 0.074512124 0.12815605 -0.16206035 0.3350026 0.36014152 0.53703064 0.763956 0.5218021 0.21565387 -0.018477086 -0.22768915 -0.30735013 0.054792468 0.07273208 0.004177864 -0.2808671 0.58436954 -0.3239123 -0.021531114 0.6042568 0.12952605 0.12148521 -0.15296762
600741 0.040956095 0.31686977 0.76910627 -0.6778171 0.268095 0.14350714 -0.32708758 0.6896457 -0.17776145 0.15111715 0.15225323 -0.029024452 0.08306718 0.35923752 -0.15594745 0.26967138 0.7096248 0.09819718 0.0019241013 0.377918 0.21542993 -0.6902567 0.4498069 0.11486016 -0.3566168 0.3956298 0.1174242 -0.03452974 -0.16047937 0.49731764 -0.05780822 -0.05694598
NVDA UW 1.0042531 0.49533725 0.03752788 0.5914687 0.38702098 1.6694891 -0.8516445 0.37010068 0.06262465 0.6610194 0.81363165 1.352226 -0.21164645 0.67829347 0.07352332 0.122852705 -1.239165 -1.0019089 -0.62335646 0.27081117 -0.60849214 -1.1346372 -0.25160456 0.14090858 -0.5303061 1.151248 1.0093043 -1.1590501 1.5002028 -0.41370475 0.4605141 0.41435412
000860 0.12856965 0.17549835 0.2539199 -0.26708958 -0.65598327 0.028349744 0.17931761 0.19150685 -0.123306185 0.02757521 0.31108063 -0.17385477 -0.009107172 0.71956176 -0.13457435 0.22747117 0.23400635 0.062202808 -0.17950082 -0.6417231 0.2882146 -0.406827 0.46067113 0.21898 0.008657691 -0.051090244 0.042325154 -0.16084729 0.60410386 0.5515471 0.3751307 -0.14525837
600529 0.7723795 0.34766954 0.17385672 0.051623933 -0.4746035 0.25532892 0.19131954 0.18712604 0.114973836 -0.4413086 0.0090871435 -0.15674265 -0.23831785 0.3387141 -0.13239764 0.2802926 0.9972008 -0.09912318 0.44128728 -0.2735933 0.0040776534 -0.12663732 0.22152232 0.3925527 -0.19554023 0.6459953 0.22039598 -0.31995353 0.17931908 0.052141435 -0.050080076 0.15588619
2269 HK 0.62823963 -0.8033435 -0.32106018 1.1203212 0.6094971 2.4711585 -0.7452441 0.64322114 0.55162776 1.3469386 1.095682 0.6793131 -0.5327099 1.3324652 0.7182613 0.32865298 -0.35202813 0.060804773 0.33282793 1.1738524 -0.864004 -1.0910555 0.8890952 -0.009971127 0.060927887 1.784831 0.026930766 -0.040145233 -0.29437432 0.7319287 1.0863944 0.48629647
6185 HK 0.4186685 -0.91100377 -0.3880994 1.3792015 0.46852764 2.3547547 -0.88684654 0.6361155 0.4879365 1.3222944 1.315044 1.0014303 -0.73787814 1.4595774 0.83651376 0.21598093 -0.19548027 -0.38767347 0.22490752 0.7768931 -0.76476985 -1.0423645 0.40481383 -0.2728544 0.07255769 1.5524931 0.10821722 -0.12507346 -0.5605229 0.76782966 1.3828717 0.7043081
600536 0.78908026 0.84205896 0.08560714 -0.17980601 -0.36653945 0.72483784 0.19851479 -0.47905838 -0.20869438 0.38105553 0.12052201 0.073294625 0.004701354 0.38875616 0.042262003 0.42795163 0.30060294 -0.2592257 0.22228895 -0.32507902 -0.0932903 -0.04839806 0.05003101 -0.33138454 -0.52699727 0.07932772 -0.21928783 -0.11572888 -0.51291126 0.25687456 0.18215849 -0.5761023
300059 0.39644018 0.1202287 0.53142035 -0.21817538 0.42766064 0.25442106 0.21406028 0.18390843 0.11092164 0.23485386 -0.20638566 -0.109713964 0.43501255 0.84975535 0.14795054 0.5123842 0.41512108 -0.3653805 -0.29762927 -0.52548915 0.48761162 -0.35567778 -0.12429738 0.27884975 0.39914262 0.2953617 -0.360184 -0.3034135 -0.3872736 0.33008403 0.006688045 -0.20741084
NOW UN 0.9553006 0.5585603 -0.0045801657 0.5288948 0.36449865 1.7876887 -0.8719406 0.25924042 0.11433957 0.42937565 1.0308198 1.490641 -0.4118706 0.6804466 0.110059805 0.1303573 -1.1727021 -0.94240826 -0.53897065 0.3209098 -0.425574 -1.1481364 -0.20371293 0.10692725 -0.4521637 1.0523877 0.94854754 -1.0738448 1.5996196 -0.4135885 0.37999788 0.51488876
603882 0.056455348 0.2467277 0.7085716 -0.14769888 -0.026836969 0.64050144 -0.075656876 -0.074685514 -0.37345204 0.040543094 0.18214919 -0.061375808 0.18264341 0.45992735 0.31647518 0.059303153 0.49330658 0.34032536 0.17645001 -0.5616019 -0.09129803 -0.060012847 -0.11237124 0.4007037 -0.02267053 0.7787372 -0.36435473 0.42451385 0.5632623 0.04423709 -0.12499818 -0.15526941
600745 0.01005043 0.45194402 1.0274597 0.22397633 -0.60100025 -0.015060469 -0.42962033 -0.07728149 -0.3397856 0.19893405 0.3332452 0.07768933 0.16089916 0.27945283 -0.017918736 0.6470187 0.40950617 -0.3136465 0.38308573 -0.11080325 0.04759111 -0.13899466 0.093753874 -0.43762988 -0.4299933 0.46193203 -0.6224053 -0.2020492 -0.05870515 -0.074441954 0.45236275 -0.29869613
000876 0.17177643 0.13645075 0.5601577 0.09649956 -0.14144254 0.7082711 0.3416108 -0.064843275 -0.2099814 -0.008922657 -0.15059574 -0.2675686 -0.28052106 0.43066505 -0.43585813 0.36454245 0.48878777 0.29399306 -0.29081166 -0.62392324 0.36353236 -0.38276348 0.31851637 0.2996222 -0.3874814 -0.20693372 -0.19204077 -0.7166169 0.36169636 -0.35759678 0.5807032 0.08467761
000895 0.13931459 0.4055323 0.46127412 -0.19403791 0.13748343 -0.22070901 0.16475904 -0.40440395 -0.025031352 0.13367559 -0.011243391 -0.15666796 0.020813148 0.9392683 -0.239649 0.12195438 0.7260536 0.12770443 -0.33834997 -0.061228372 -0.107592896 -0.32653713 0.18335381 0.11680922 -0.41726738 0.016589811 0.03849786 -0.87284106 0.47908613 0.2692788 0.34531698 -0.15680753
01918 -0.1400534 -0.035059836 0.037325036 -0.52199286 0.039542086 0.56199044 -0.13109 0.19379081 -0.7126095 -0.096437044 0.04493659 -0.04734895 -0.7397388 0.9979002 -0.36463007 0.46401206 0.3220453 -0.2546723 0.11625432 0.23751548 0.46045235 0.12283658 0.3416793 0.15072674 -0.4809507 0.08883485 -0.492396 -0.3579303 0.013961818 0.010807339 -0.20284343 0.13615935
300122 0.70552117 -0.08401164 0.28349483 0.12439383 -0.16088654 0.23285696 -0.36012864 0.36237875 0.042446923 -0.4060533 0.42585698 -0.14913224 -0.22773258 0.35085922 0.2717898 0.31520692 0.7007485 0.13098043 0.45895642 -0.6895782 0.19771695 -0.22544011 -0.07199396 0.33613333 -0.26042938 0.40928108 -0.19295974 -0.28642172 0.116402246 0.14079207 -0.04931748 -0.29214886
601328 0.15804452 -0.08261139 0.23565917 -0.7961491 -0.06526159 -0.13448615 -0.42496493 -0.45638227 -0.13098653 0.6581841 0.032853477 0.29524982 -0.6077687 0.26556167 -0.14627863 0.23718631 0.87301016 0.041761763 -0.5702122 -0.1961965 -0.13345599 -0.5074012 -0.039767392 0.1421157 0.030086773 0.6493727 0.17936984 -0.6150058 -0.11888031 -0.066236146 -0.18101712 -0.55023897
603444 0.28233027 0.3752915 0.37632093 -0.07225867 -0.06289532 -0.2982807 -0.054528102 -0.16912645 -0.2178141 0.2445171 0.49441078 0.17415611 -0.26510543 0.5313896 0.093253024 0.76545215 0.32791117 0.13147174 0.13672341 -0.3942417 0.58878654 0.17365268 0.21528517 0.026539208 -0.039502896 0.21021669 0.062703304 0.08313701 0.25734228 0.75487787 0.78152865 0.1658144
300347 0.5144018 0.044120584 0.2651288 0.3834023 -0.4226908 0.4595359 0.24590257 0.123089105 -0.09888632 -0.42795575 0.074829124 -0.29540646 -0.14699903 0.41894504 -0.25650522 0.42796272 0.64540213 -0.017049547 0.2810605 -0.57357454 0.040318772 -0.6659674 0.18955238 0.57468987 -0.36404645 0.23722214 0.13133314 -0.4046945 0.09917822 0.12297822 0.14158466 -0.24222615
300253 0.54306936 0.6936825 0.2656219 -0.22712089 -0.6050239 0.2296263 -0.34395865 0.0013392168 -0.088483326 0.24057353 -0.1893123 0.10074998 0.09708978 0.67182386 0.19199416 0.19584914 0.57099897 -0.32228717 -0.2032809 -0.6363865 0.28703326 -0.083545424 -0.6128737 -0.15880893 -0.49038312 0.13339257 -0.2854371 0.24265374 -0.48395714 0.16985682 0.33176526 0.32885316
600809 0.27431923 -0.18871851 0.5263463 -0.22823432 -0.67315406 0.16425277 -0.14938973 0.31835967 -0.13198505 0.06420171 -0.11675459 -0.0059279213 -0.03672871 0.31093425 -0.09676548 -0.08035888 0.46404347 -0.28978983 -0.34214142 -0.48469436 0.15784562 -0.07902565 0.6307151 0.41118345 -0.3447948 0.18425192 0.04215609 -0.2935588 0.39948446 0.46821067 0.4650511 -0.2711648
600383 0.27799237 0.53760386 0.37424996 -0.28024277 -0.42406762 -0.12098332 0.049058866 -0.0114420615 0.12416549 0.33959952 0.5155135 -0.24182862 -0.29752806 0.76878357 -0.4667575 0.41850138 0.64253956 0.45394504 -0.27135658 -0.033938285 0.3139016 -0.008090775 0.51815116 0.5264078 0.005582769 0.26585904 -0.014502011 0.14734402 -0.36865935 0.42552343 0.46714103 0.17468803
300124 -0.01571084 0.523739 0.06416506 -0.16031627 -0.1296325 -0.0823133 0.5031092 0.6042452 0.47025132 -0.15846555 -0.16714385 0.021296095 -0.30642036 0.6957167 0.07855232 0.5638159 0.3844268 -0.13468525 -0.2534779 -0.15322442 -0.7493866 -0.39246237 -0.17783251 0.31988811 -0.40860954 0.62136906 -0.3819557 0.14046004 0.021906398 0.0020476812 0.62575734 -0.040312275
000725 0.47928253 0.74316394 0.026174331 -0.48376834 0.017096823 0.46250188 0.028019562 -0.53955436 -0.3905431 0.41914463 0.33444098 0.37381008 -0.1821903 0.21339756 0.042102803 0.35585466 0.59898335 -0.1602543 -0.025265768 -0.23883763 -0.25995517 0.017603049 -0.12370885 -0.2523408 -0.39009687 0.34360862 0.08271385 -0.17716128 -0.420237 0.019543 0.07624849 -0.7162092
603345 0.19161212 -0.04014617 0.579549 -0.4083256 0.32052177 0.20707086 0.3312769 0.23672216 -0.2384085 0.2127061 0.16927315 -0.040911727 0.09488129 0.4742261 0.020643117 0.3407705 0.72094506 0.14680281 -0.14171804 0.006737513 -0.31016108 -0.111968294 -0.20400107 0.105404735 -0.58477116 0.036323648 -0.2787507 -0.35762838 0.7912463 0.33326578 0.43775216 0.23805389
600426 0.20763785 0.7247825 0.9656957 -0.69477236 0.210243 0.20019586 -0.2960405 0.8524689 -0.13604625 0.06723694 0.2998 -0.11721648 -0.095315695 0.23327614 -0.16737163 0.06960723 0.18231651 0.18648492 -0.2824571 0.2343677 0.3325032 -0.7435701 0.28213748 -0.042006623 -0.28532982 0.122713014 -0.13478284 -0.5223826 -0.25005415 0.41034395 -0.098256215 0.079078175
002916 0.33421835 0.40590015 0.4797504 -0.6527966 -0.05206104 0.36632058 -0.085000575 -0.20043574 -0.24760386 0.12863122 0.20326538 0.09127209 0.04836242 0.33964935 0.10187698 0.21715231 0.5521246 -0.48031202 0.19414017 0.07608579 0.08453775 -0.3918737 -0.15011927 -0.1841829 0.09834595 -0.03363184 -0.70959646 0.0833627 0.34368464 0.39658582 0.78800166 -0.11025521
603501 0.3277667 0.27491373 0.7920168 0.3321957 -0.19299424 0.033723164 -0.32921115 -0.28576452 -0.288918 0.11818489 0.42024958 0.18239054 -0.015506605 0.48006853 0.3915776 0.9315716 0.42109326 -0.058832143 0.27414885 -0.3518518 0.24049541 0.14298496 -0.19386214 -0.07213213 -0.2903179 0.22939266 -0.31422335 -0.03964805 0.07019698 0.24327804 0.45894918 -0.4503914
02238 -0.31193328 0.24385443 0.09871969 -0.4184906 0.27315122 0.19242726 -0.17977645 -0.02552007 -0.6244728 0.19824912 0.29413205 -0.26239225 -0.6338479 1.0305269 -0.10181961 0.22856505 0.23531906 -0.5532036 0.3985856 0.24794033 0.09440652 -0.18086779 0.2496459 0.42392406 -0.58234185 0.05144211 -0.36614785 -0.101657085 0.08716768 0.011100944 -0.18899523 0.022872768
603658 0.58850926 -0.29417497 0.19606857 -0.027826097 -0.3686917 0.3748163 -0.16303214 0.23558015 0.12472813 -0.6414022 0.37898123 0.22799748 -0.07221193 0.29659346 0.023403032 0.38672483 0.9625468 -0.10675571 0.35037076 -0.6078443 -0.0042941715 -0.33236554 -0.10506036 0.32176578 -0.530532 0.44982225 0.111896224 -0.09813464 0.2216363 0.30541712 -0.0956177 -0.17454548
300450 -0.024365237 0.3762009 0.5293575 -0.20257694 0.07326316 -0.25786737 -0.00021495108 -0.019435829 -0.510794 0.2781617 -0.0075136684 -0.13954741 0.5040531 0.93972564 0.0005850664 0.49543568 0.9425335 -0.37380663 -0.11626456 -0.4965317 0.26624545 -0.29572445 -0.20360073 0.15887699 -0.19952913 0.5105009 -0.5581609 -0.20536356 -0.19862133 -0.09168694 0.43306565 0.13182837
300661 0.65605974 0.82223046 0.20238076 -0.2192883 -0.4949542 0.67374486 0.09267591 -0.5127758 -0.38323793 0.3017569 0.24810386 0.04248981 0.05869445 0.39820224 0.15844098 0.6368823 0.3655322 -0.24972731 0.23188458 -0.42433226 -0.14304091 0.013439965 -0.12534855 -0.3721198 -0.4641686 0.08856005 -0.244794 -0.05958147 -0.2978236 0.15369004 0.23431934 -0.48590523
603517 0.25842664 0.35623747 0.32266408 -0.28495747 -0.25905442 -0.24354869 -0.14389835 -0.029945968 0.35236213 0.08862348 0.26589152 0.18135653 -0.5430338 0.607626 0.0017014307 0.3858434 0.58911943 0.14063981 -0.20969176 -0.4863188 0.24015298 0.034793574 0.15052673 0.31804764 -0.17220736 -0.039878394 0.17109188 0.109117575 0.53016204 0.43672234 0.5257091 0.2968912
600104 0.1672905 0.7976127 0.34925336 -0.41047484 -0.0037469578 -0.37032855 -0.30830947 0.2902768 -0.78845906 0.47855577 0.25913495 0.0012431808 -0.22657606 0.19767596 -0.1790078 0.5731217 0.5426558 0.43635887 -0.12763037 0.12473363 -0.07916079 -0.6496957 0.19664617 0.5461541 0.30102694 0.31509703 0.47930855 0.0011160183 -0.083778076 0.234965 0.5542928 0.3914901
000661 SZ 0.6000991 -0.9910157 -0.20146246 1.1246451 0.51170295 2.352207 -0.8918183 0.62651604 0.63762784 1.437741 1.3195537 0.7438638 -0.71475255 1.3308802 0.6780606 0.38728014 -0.32259005 -0.2896799 0.36445314 0.7542552 -0.85810965 -0.97495145 0.72987705 -0.15098082 0.11148916 1.6550665 0.12631302 0.25097442 -0.33784065 0.6553018 1.3025517 0.5463718
300482 SZ 0.56129915 -0.9779566 -0.2151946 1.0773404 0.45454356 2.3737173 -0.8691549 0.5928563 0.5642569 1.4111252 1.3297305 0.73925924 -0.73500717 1.3546938 0.7496637 0.32375002 -0.33708254 -0.24599752 0.40874222 0.8128589 -0.88139445 -0.9624409 0.72908455 -0.15421842 0.10169585 1.653359 0.16445765 0.11733794 -0.36472875 0.7049194 1.3167603 0.5373505
601288 0.2369495 -0.25753662 0.35331118 -0.3738106 -0.006794712 -0.21245833 -0.20915574 -0.46528438 -0.11359617 0.58224666 0.09716686 0.03169467 -0.5043133 0.37644577 -0.07987107 0.13108279 0.62489915 0.18630077 -0.66895103 -0.21688405 -0.27497533 -0.6918319 0.06525605 0.119191006 -0.044457253 0.5286407 -0.073041216 -0.60982025 -0.10569715 0.48367527 -0.020388305 -0.4812278
000401 -0.56994927 0.7679151 0.2988862 -0.16078943 -0.3001805 0.01264951 0.039201748 -0.35423055 0.5242116 0.030301245 0.058819626 0.5412824 -0.23263966 0.33484352 -0.10674049 0.7355983 0.39176285 -0.048151314 -0.4884241 -0.44799218 0.24796431 -0.3402501 0.5236378 0.6987247 -0.2394444 0.31129494 -0.2630367 -0.4516285 0.17129815 0.41462606 -0.02253623 -0.3609941
KYG875721634 1.9680934 0.7321624 -0.658061 0.4297187 -0.6208129 1.269324 -1.5100645 1.9367931 0.83731055 1.4820007 0.849869 0.5758011 -0.77008265 1.3828439 1.1420792 0.35725445 -0.07772871 0.36101672 -1.1850953 0.7968389 -0.31284773 -0.22743109 0.31936464 -1.1119497 0.14650616 1.704163 0.95710504 0.4056752 1.356957 0.18451686 0.52049613 -0.22780125
688029 SH 0.5488483 -0.9918004 -0.22910061 1.0772262 0.42550159 2.3827987 -0.8753344 0.61095846 0.6130048 1.4411986 1.251185 0.7416069 -0.76209176 1.3242311 0.704505 0.34019685 -0.32212555 -0.23790382 0.40002474 0.78995544 -0.87982625 -0.9561779 0.69467175 -0.14941844 0.039418463 1.673992 0.16703935 0.10490985 -0.36655268 0.70152724 1.3296357 0.525524
300357 0.5981817 0.32011133 0.12711465 0.3132703 -0.49719602 0.40456584 0.4501669 0.1256415 0.23240855 -0.55123955 -0.023597872 -0.50678444 0.04849309 0.5182095 -0.17360656 0.5805484 0.69992286 -0.11694909 0.24674033 -0.20234124 -0.2914781 -0.51519406 0.28675878 0.20788474 -0.16436005 0.48395658 -0.009023131 -0.3318074 0.35591498 0.2708819 0.19829342 -0.3011615
300326 0.167054 0.38588312 -0.081123486 0.15140201 -0.014332279 -0.1575242 0.096904546 0.5229781 -0.26149648 0.13392802 0.32220465 -0.03689941 -0.3549222 0.22702032 0.93670803 0.17925136 0.8860551 -0.6438527 0.07069664 -0.55046636 -0.3437218 -0.4501706 0.8211879 0.284627 -0.33898112 0.020083928 -0.46779668 -0.35182777 0.15652294 -0.16256827 0.10186368 0.20277923
00388 0.08290003 -0.5248952 0.13883759 -0.1945957 -0.41215265 0.1895803 -0.19585079 0.43590203 -0.9639844 -0.3381069 -0.0025248292 0.3130322 -0.40238687 1.1407632 0.13874114 0.02840782 0.31361136 -0.29463935 -0.44567236 -0.026667172 0.22844553 0.12922664 0.5206547 0.11518656 -0.30251676 0.28800982 -0.25199148 0.004361628 0.08367615 0.34047058 0.11305109 -0.103781305
600872 -0.10380959 0.02802994 0.58749473 -0.07675758 -0.6203868 0.089494 0.026038101 0.1536342 -0.13867521 0.34859434 0.12256205 -0.20529152 -0.037662532 0.7196372 -0.30832687 0.4652298 0.53943974 -0.28627098 -0.1906808 -0.2506644 -0.008430517 -0.4836999 0.29414937 -0.22461295 -0.13455485 -0.25229698 -0.088793784 -0.28266078 0.20129147 0.19773945 0.35007247 0.02075401
601658 0.3063613 -0.08008932 -0.23515314 -0.48955616 0.05152454 -0.21600237 -0.90586954 0.0032121672 -0.06436307 -0.04561785 0.122076415 0.19635954 0.15410593 0.5263715 -0.021601174 0.3956467 0.2525341 0.5186062 -0.57499254 -0.34578022 -0.30892482 -0.49176642 0.06976618 0.5309589 -0.49463895 0.27954236 -0.33550388 -0.17525579 -0.25187927 0.427401 0.610882 -0.33279914
002841 -0.03514173 0.48811862 -0.053864967 -0.18687552 0.02145368 -0.30583346 -0.13979468 0.46932423 0.5047957 -0.29146817 -0.11284521 0.32352632 -0.3050438 0.941965 -0.09354264 0.6668437 0.08232336 0.059249945 -0.38113272 -0.41929924 -0.69527143 -0.37568325 0.025135165 0.5921883 -0.7151449 0.43331298 -0.48704082 0.22284895 -0.12851922 -0.06789164 0.680854 -0.34681705
000739 0.10120243 0.33743235 -0.31072614 0.3960575 0.24784352 -0.08040631 0.05690341 0.20811386 -0.09766988 0.36069316 0.26031038 -0.38110575 -0.3550673 1.0074937 0.3669795 -0.1637541 0.97884417 -0.12983255 0.44699636 0.0061932295 0.5088257 -0.6609259 0.2509649 0.23368485 -0.42015412 -0.005217566 -0.18090881 0.008631179 0.38400862 -0.19006772 0.4000522 -0.50603426
002065 0.5788482 0.31634143 1.1594937 -0.3134514 0.06818235 0.08647202 -0.22397915 0.33253604 0.082563005 0.16812289 -0.0223833 -0.035401285 -0.26016894 0.20088771 -0.020431107 0.27019453 0.2336953 -0.27249962 0.20966907 0.09493066 0.43485236 -0.46785405 0.5870793 -0.013385595 -0.54620606 0.46502963 -0.37147313 -0.13014725 -0.57872134 0.13314202 0.28200424 -0.46212873
002371 0.09078118 0.35365504 0.85102123 0.011449056 -0.4789017 0.15403399 -0.18851894 -0.23255704 -0.44208863 0.22215956 0.36102152 0.2825459 0.1698136 0.38611123 0.32473516 0.8341706 0.44161463 -0.3556096 0.1889492 -0.17660508 0.24886942 -0.17364345 -0.38470578 -0.31645578 -0.5186143 0.2784708 -0.5883593 0.08762896 -0.22107184 0.012441165 0.5721708 -0.095289715
000961 0.1326417 -0.21200427 0.63186055 -0.22441547 -0.5488434 0.41758284 0.036627688 0.32085344 -0.124536715 0.3251568 -0.12168427 -0.43821236 -0.19277163 0.23022361 -0.44597468 0.13356833 0.5428424 -0.25888622 -0.59819466 -0.27559352 0.31021693 -0.18564121 0.6002243 0.16318238 -0.47204077 0.332098 -0.03822639 -0.48651454 -0.29377088 0.2409417 0.2923361 0.026728848
300630 0.5549784 -0.008749714 0.05579967 0.4221538 -0.5741203 0.48858657 0.43846086 0.20071621 0.02874194 -0.17233324 0.021326242 -0.1624492 -0.08235823 0.4885291 -0.12079309 0.32628146 0.53137714 -0.12362599 0.40919852 -0.084575355 0.27355745 -0.5268497 0.21507978 0.4507189 -0.43320215 0.3061962 -0.16606857 -0.30874062 -0.24527793 0.39126298 0.2286475 -0.5573578
002212 -0.10777916 0.37023306 0.6190712 -0.34963658 -0.27062228 0.2616158 -0.246812 -0.23796879 -0.50434864 0.20794897 0.34394667 0.086878955 -0.2530821 0.6502007 0.04757323 0.63950676 0.16847695 -0.4598574 0.52672243 0.17793654 0.27503705 -0.119497105 0.032473147 0.43939552 -0.5773297 0.033266097 -0.85937846 -0.21050474 -0.32230607 0.04093911 -0.17634608 0.2861712
603259 SH 0.6106633 -0.98956096 -0.21811938 1.0977414 0.49801257 2.3272562 -0.82977647 0.6745947 0.58488184 1.4861909 1.3227929 0.78246844 -0.7688259 1.2994983 0.73079795 0.31710976 -0.3182298 -0.2821549 0.36684525 0.7557145 -0.8966122 -0.96020263 0.7641528 -0.123160064 0.090652466 1.6526111 0.17037597 0.1556066 -0.38035032 0.71533626 1.3020934 0.50166893
000338 -0.040613037 0.013522147 0.33240148 -0.70188785 0.35839823 0.21212228 0.06411772 0.1222152 -0.1923598 0.050117724 0.403927 -0.020073107 0.4240434 0.25930095 -0.057913214 0.88044995 0.83168375 0.09400895 -0.23642436 -0.4279422 0.21355501 -0.10455692 0.25166854 0.5050513 -0.5227767 0.32353193 0.0911276 -0.5267012 0.14435627 0.24847285 0.22303692 0.13062254
603019 0.2729979 0.3296972 0.80696887 0.38630787 -0.3108157 0.34775126 -0.013832283 -0.41644582 -0.029122546 0.36928 0.15467244 0.2727823 0.1713844 0.38761947 0.38716245 0.879056 0.3211894 -0.2732011 0.32340887 0.101751395 0.60595804 -0.26214874 0.09403655 0.043649334 -0.23093878 0.14823127 -0.4820274 -0.059497893 -0.52339125 0.3463645 0.20420475 -0.26845047
601888 0.45531613 -0.28125176 0.40047777 -0.35158136 0.04647255 0.35128665 0.12119228 0.44188336 -0.3729115 0.15530264 -0.044891514 0.0651357 -0.3695806 0.20487988 -0.24548778 0.1282042 0.40617242 -0.14496228 -0.34237322 -0.48014557 0.12789375 -0.12745641 0.28553137 0.13066612 -0.54973555 -0.008818268 -0.13063687 -0.5397774 0.18165125 0.5160589 0.27011707 -0.05006401
BBG00QV37ZP9 1.1617839 0.18185516 -1.091961 0.5158776 -0.496316 2.277936 -1.9323632 0.72712463 -1.4209657 2.1238534 0.8118204 -0.36751333 -0.34482235 0.07744739 0.27313828 -0.16432497 -0.1669057 -0.8795577 0.08851447 -0.0076486324 0.2043982 -0.67786974 0.75301486 -0.38486812 0.04514966 2.2350774 0.27313516 -0.80245733 0.7054536 -0.020000909 0.349919 0.9449143
600763 0.3590937 0.21350612 0.15051982 0.058574144 -0.38903436 0.39164442 0.25809136 0.1754687 0.31631863 -0.15742484 -0.11809006 0.018202353 -0.040394828 0.38341802 0.2532828 0.62437487 0.93770665 -0.10036103 0.3686961 -0.5151036 -0.30045098 -0.40444 0.14341184 0.065056026 -0.322326 0.30643404 0.012999746 -0.05265236 0.54333884 -0.0038237562 -0.113072395 -0.12964651
02382 -0.21767117 -0.06859603 0.2843583 -0.38664865 -0.090655476 -0.31203693 0.31095243 0.577362 -0.32546344 -0.08373062 0.20661831 0.19610366 -0.5242447 1.2744641 -0.22348343 0.5336035 0.10278884 -0.41283762 -0.15878846 -0.21990484 -0.21702845 0.01602357 0.0025156538 -0.026858184 -0.4443583 0.42762724 -0.33173513 0.071283475 0.17391291 -0.4843807 0.50391847 -0.13901283
06098 -0.32977685 -0.12049801 -0.12371454 -0.34561697 -0.24732046 0.13741264 -0.019535085 0.4456268 -0.69997007 -0.24479267 0.22924769 0.07460983 -0.44878513 1.1883496 -0.3695221 0.6292488 0.3184992 -0.23389193 0.066581726 -0.3737072 0.36096638 -0.14135759 0.3198537 -0.39062864 0.04855148 0.22783263 -0.17564347 -0.2731677 0.4389332 0.32247627 -0.01430739 0.029552428
300677 0.7718577 0.15661952 -0.00085141725 0.04449484 -0.6229454 0.19735391 0.5527679 0.25026092 0.055130012 -0.41131735 0.17285761 -0.1927148 -0.35156798 0.43317854 -0.08584055 0.15607962 0.34908092 0.2688714 0.39923775 -0.60608613 0.18095025 -0.5802937 0.18050478 0.13288656 0.01893976 0.73951834 -0.15474777 -0.3838929 0.1566093 0.42245063 0.19151144 -0.17204769
300498 0.27322242 -0.0071587274 0.19605519 0.33710238 0.22463578 0.13796529 -0.20897892 0.02647898 0.017693033 0.4047449 -0.21125372 -0.27583233 0.13707317 0.92527276 0.022470014 0.30400395 0.5497085 -0.06335175 0.0049850214 -0.22635463 0.5682226 -0.4681907 0.31204757 0.18904787 -0.20742981 -0.19955443 0.16409574 -0.20681901 0.32531482 -0.30048627 0.47806916 -0.83418673
1093 HK 0.6945569 -0.6458841 -0.45785564 1.1499218 0.61855036 2.5709097 -0.6731612 0.5560109 0.47926286 1.3021203 0.9949723 0.6733349 -0.4876987 1.3307317 0.7498798 0.31780586 -0.4130104 0.13559614 0.2359415 1.2891474 -0.897034 -1.1178919 1.0612111 -0.059965353 0.04235635 1.7707574 -0.11185258 -0.1580172 -0.32488132 0.7440869 0.96033293 0.42166123
002594 -0.27146193 0.86551076 0.5053309 -0.083760396 0.1333266 0.55679923 0.24035475 0.100845225 -0.43088576 0.34303275 0.05769917 -0.19328894 0.7995732 0.75215465 0.52334505 0.23409498 0.47177657 0.22651473 -0.30054015 -0.5458209 0.028823059 0.18869086 -0.09386314 0.16480781 0.11923816 1.0814667 0.017926607 0.26117745 -0.22021984 -0.113573425 0.4384313 -0.2665336
603233 0.39954042 -0.107218675 0.035263285 -0.3368816 0.03336019 0.18812479 0.21122655 0.035803508 -0.5008663 -0.17522797 0.54033536 0.065656185 0.40248895 0.5383309 0.6024419 -0.09324809 0.6518672 0.22708145 0.18126535 -0.6369775 0.087896615 -0.7024443 0.51865095 0.42683187 -0.4789231 0.37809518 0.2152905 -0.3011267 0.08153374 -0.0735885 -0.29478735 -0.02782292
600521 0.5656072 0.24739921 -0.1779604 0.6186142 -0.25826868 0.2321426 0.11635223 0.14869662 -0.10123418 -0.025192907 0.31246105 -0.50880635 0.18035044 0.8087104 -0.16296406 0.028240364 0.9398386 0.08932691 0.33675134 -0.039811414 0.375582 -1.0228475 0.3479883 0.5404353 -0.34560853 0.06998657 0.19230781 0.057338826 0.08801816 0.15332398 0.35500872 -0.74307674
300628 0.50901496 0.93387556 0.3809359 -0.44557723 -0.690258 -0.102889165 0.18839815 0.361044 -0.13210458 -0.0013649564 0.32599035 0.26502097 0.053380232 0.6314901 0.03314772 0.44802412 0.37769702 -0.34389573 -0.38856125 -0.20408335 0.2895651 -0.12827873 -0.37088653 0.20737289 -0.36701468 -0.19316043 0.05555125 0.30102924 0.48450175 0.25619113 0.13471985 -0.08637807
600009 0.42820624 -0.21090886 0.48134768 -0.29882482 -0.6297349 -0.020964097 -0.4127254 0.36720467 -0.52982706 -0.20376751 -0.1799628 0.20371626 -0.07889716 0.5791663 0.19486322 -0.13125925 0.15901369 -0.23483124 -0.4095646 -0.3299242 0.11892658 -0.06601245 0.6983862 0.47236422 -0.21548563 0.21540648 -0.13016331 -0.21082012 0.23899977 0.35658297 0.37155533 -0.36595175
BBG00MQCXPL1 1.4168422 0.059366755 -0.76090366 0.60472655 -0.7801614 2.1344366 -1.8041915 0.6016114 -1.4361485 2.0475852 0.8017186 -0.31515756 -0.315252 0.31422105 0.23608285 -0.36058193 -0.075164214 -1.0653191 0.06850769 0.33075687 0.42548904 -0.73492986 0.5838255 -0.46273592 0.20590794 2.3008525 0.48322964 -0.5346548 0.6356544 -0.09944298 0.38702822 0.9694388
601601 0.21375881 0.4082072 0.15561128 -0.7982419 0.00092598295 -0.2060837 -0.4414328 -0.1833024 -0.26367185 0.1579749 -0.062697664 -0.2591242 0.33864382 0.7813465 0.16477989 0.4231897 0.5235467 -0.124444 -0.18402806 0.2888967 0.014051245 -0.3325391 0.05679868 0.596961 0.44137153 0.27965257 0.039935995 -1.1894965 -0.055190276 -0.06706436 0.017164372 0.18748964
600436 0.4995022 -0.0040733633 0.112364724 -0.30963454 -0.37908638 -0.08457208 0.2210103 0.08789469 -0.18125437 0.3585228 0.5945914 -0.19521348 -0.28625733 0.45600396 -0.28244337 0.24869348 0.34732804 0.39390904 0.33095092 -0.8170754 0.14925866 -0.24695273 0.21507052 0.21833554 -0.010544594 0.54435104 0.050228637 -0.038278345 0.35615918 0.54128027 0.11852615 -0.28512013
002080 0.25957215 0.2370427 0.16683877 -1.0109931 -0.12080307 0.71325654 -0.25338024 -0.05752606 -0.10842347 0.0019883798 0.119357154 0.08200511 -0.1733479 0.41390523 -0.36066324 0.17737204 0.5783931 -0.21188514 0.08852961 0.41502428 0.09940433 -0.28059664 0.26344717 -0.2687779 0.117119886 -0.060250197 -0.91394055 0.1348032 0.3841066 0.27557617 0.64438295 -0.070781335
600028 0.13517895 0.20088974 0.011875173 -1.0469162 0.15314677 0.0018407939 -0.6325745 -0.34592155 -0.31038213 0.56080556 0.6292586 0.36910298 -0.25394386 0.39598408 -0.1801714 0.09435824 0.93921465 0.28466967 -0.5635406 -0.090348214 -0.11993211 -0.4961464 0.13496175 0.25712156 0.0029396415 0.503158 0.32794398 -0.44266924 -0.4430812 -0.4847282 -0.15307876 -0.52771896
601816 0.10807675 0.016416557 -0.03895428 -0.18496864 -0.20070802 -0.45204446 -0.4222519 -0.23905897 -0.29847813 0.34499297 0.35289618 0.111631945 0.1626583 0.23739757 -0.19151087 0.15563348 0.50832444 0.23001444 -0.28526118 -0.15048636 -0.07995949 -0.7983933 0.23782964 0.27452657 -0.029635401 0.53355956 -0.2682631 -0.4157312 0.0835541 0.618586 0.36737743 -0.3889572
TAL UN 0.9200249 0.5893422 0.045269724 0.46794507 0.36649263 1.7586216 -0.83487594 0.25918233 0.16020267 0.43576917 0.9905809 1.489203 -0.35199317 0.7283997 0.08656975 0.20093757 -1.1644491 -1.0847597 -0.4728856 0.38844812 -0.48246244 -1.1474155 -0.19269934 0.112717435 -0.34859908 1.056752 1.0231286 -1.0755342 1.523177 -0.43324262 0.44556358 0.5365006
03888 -0.1529347 -0.04202762 -0.18010725 -0.43372458 -0.13883618 0.31199092 0.006833317 0.40982875 -0.38519692 -0.17948908 0.20593333 -0.062081557 -0.49546772 1.1737077 -0.5871288 0.6459834 0.45633748 -0.013920397 0.012010095 -0.22119772 0.55100554 0.078247584 0.4909631 -0.47966534 -0.18093027 0.18171962 -0.42861703 -0.11313029 0.34331977 0.0290216 0.20082606 0.13250308
BABA US 1.0567791 0.61928904 -0.8548513 0.8538858 -0.35360047 1.7454246 -0.986362 -0.10853111 0.44985119 1.1880122 0.2772909 1.48629 -0.9372976 1.5506272 -0.39111292 -0.0073943953 -1.3999287 -0.8375169 -1.0089549 -0.033475474 0.0075524338 -0.3886474 -0.22413938 0.25585663 0.4369408 0.79078776 -0.12273751 -0.94710535 0.93691474 -0.36186433 0.8899455 0.6106149
300482 0.7896741 0.18229961 -0.21655944 0.1015506 -0.26000255 0.31629896 0.23397325 0.3838738 0.05640494 -0.4402232 0.18315394 -0.19329347 -0.25898424 0.3850692 0.13025272 0.049922086 0.6477737 0.057157263 0.4118778 -0.68034387 0.19157602 -0.5248454 -0.01922889 0.1967025 -0.3360727 0.6656 -0.14864716 -0.3922801 -0.012596961 0.18541679 0.04510101 -0.43686846
600026 0.21025044 0.19107935 0.2544285 -0.9548573 -0.1008554 0.6175298 -0.07471121 -0.29799965 -0.22553997 0.18292546 0.10239426 0.033993404 -0.063586466 0.35256594 -0.13936463 0.022012465 0.5375291 -0.2844366 0.29057488 0.2505364 0.0053132134 -0.5525209 0.14501144 -0.13492797 0.20607959 0.028681383 -0.72199136 0.06509876 0.4112279 0.40849543 0.70173067 -0.12563875
002739 -0.054824933 0.9014394 0.4163081 -0.43974003 0.46432114 0.25884908 -0.2846073 -0.07527857 0.22213809 0.51076645 0.15289672 -0.3574447 -0.24226174 0.7280886 0.28524098 -0.111947365 0.122837886 -0.07170327 0.25499249 -0.180583 0.6666837 0.10123391 -0.0999718 0.096126795 -0.8735198 0.45282748 0.28045028 -0.097852334 -0.041654322 0.84219086 0.24851602 0.66300046
300136 0.5145177 0.47675392 0.02630555 0.09464137 0.3795946 -0.24527189 0.08461131 0.18311524 -0.3823654 0.1637737 0.30331156 -0.050182935 -0.34681138 -0.15343454 0.64319736 0.29019523 0.53962845 -0.96308976 -0.41933167 -0.50415087 -0.05012501 -0.20170707 0.61721486 0.15141752 -0.41078755 0.21728376 -0.7223653 -0.2426329 0.27308425 0.08189481 0.45041814 0.16166726
002439 -0.023028882 0.9865522 0.5766236 0.23250398 -0.16989735 0.42237306 0.034223434 -0.063829735 -0.60363424 0.29244015 -0.0646387 -0.0037405067 0.5602052 0.27225387 0.4943954 0.65680164 0.3602413 0.2949569 -0.22757204 -0.35270235 0.18340768 -0.021671625 0.031458348 -0.17754185 -0.1675762 0.9807484 -0.2447262 0.31253505 0.22223836 0.075903 0.08728658 -0.35163334
300113 -0.050478 0.82137513 0.31277335 -0.3332484 0.5044368 0.10385566 -0.2651566 -0.14996651 0.20937829 0.44859725 0.2342333 -0.25532097 -0.0829801 0.76846933 0.28265983 0.013719788 0.123009734 -0.0040095327 0.22863834 -0.12027491 0.73244727 0.0867915 -0.00013901322 0.07920761 -0.93442816 0.39312756 0.26411167 -0.067877 -0.015587519 0.87667817 0.36015642 0.49838537
603456 0.9440747 0.34477067 -0.0421299 -0.11083898 -0.10898327 0.33896983 0.46433106 0.09314906 0.26813093 -0.28121412 0.013424533 -0.019321345 -0.5735795 0.41637608 0.18300663 0.32337642 0.7536064 0.08156954 0.55119413 -0.4000465 0.84634537 -0.56075615 -0.07978808 0.30604005 0.11108626 0.5797713 -0.058951505 -0.11165073 -0.096450776 -0.3157234 0.27934125 0.04722545
600438 -0.014274678 0.3688507 0.41454098 0.33587343 -0.03781302 0.28794128 0.3126842 -0.19951858 -0.7487175 0.29957673 -0.42709458 0.15887645 -0.08890102 0.0417718 -0.2344359 0.61114305 0.7159647 0.17309515 -0.17116113 0.049115863 -0.00083270797 -0.8071878 0.32958615 0.83109987 -0.13285945 0.30022633 0.020226467 -0.13102733 -0.040178806 -0.22662531 0.74001825 0.5644419
603708 0.53367877 0.022714786 0.5748729 -0.82806987 0.19275157 0.5583251 0.10501377 -0.122753896 -0.12571563 0.14930506 0.16848202 0.4223434 -0.0005584658 0.412736 -0.2353119 -0.11546745 0.64085215 0.044221256 0.10754009 0.078348294 -0.17101184 -0.6248859 -0.020147376 0.027535861 0.0042336616 -0.40521887 -0.6806562 -0.22161467 0.3596708 0.50700253 0.65419596 0.10382937
600900 0.0767246 0.11988066 0.07979828 -0.22217523 -0.15515283 -0.36669084 -0.08053241 -0.20919225 -0.65206414 0.40919447 0.31808653 0.038973685 -0.275436 0.36802074 -0.1507524 0.20469248 0.7221038 0.373481 -0.5233914 -0.21444705 -0.27625653 -0.6893608 0.29777378 0.19810617 -0.14207977 0.52877045 0.000712313 -0.31736213 -0.20181252 0.7273943 0.36278516 -0.22152685
601818 0.01837034 0.122064225 0.22588798 -0.721321 0.049416125 0.007815266 -0.45504504 -0.15674005 0.1045326 0.5240162 0.42373294 0.5563237 -0.4991944 0.06314301 -0.39978957 0.17814271 1.1192371 -0.07291645 -0.49936318 -0.08216815 0.046537668 -0.13758993 -0.14361762 0.13166149 0.21341354 0.75837016 0.04473001 -0.48378512 -0.05803706 -0.20744272 -0.10358882 -0.54198587
001914 0.39232072 0.30392942 0.16644214 -0.2009477 -0.6968637 0.1393487 0.29749775 0.2688926 0.008024428 0.22584414 0.5462164 0.0718701 -0.17159459 0.73984003 0.079552375 0.21944335 0.7163902 0.001886402 -0.4425486 -0.48736525 0.14890589 -0.30142877 -0.040697347 -0.0006777239 -0.29693794 -0.49773648 0.09077137 -0.16445933 0.39905125 0.28054282 -0.2555896 -0.13074608
002384 0.8057191 -0.054371573 0.57080597 -0.06662041 0.24611284 -0.32503 0.2368299 -0.10175421 -0.38558242 0.20830321 0.607657 -0.27384058 0.1838735 0.36569133 -0.082209945 0.6895277 0.44062158 -0.7425634 -0.5460432 -0.5640509 0.22564831 0.106318265 -0.05176571 0.081003055 -0.52481836 0.4644169 -0.45927233 0.21545385 0.17975125 -0.50510836 0.6676414 0.40381417
BBG00HPYZKT6 1.1918478 0.19017194 -0.93445057 0.5685531 -0.5953612 2.3004372 -1.847337 0.76084906 -1.4220618 2.1480463 0.8067478 -0.41414014 -0.4466298 0.1427051 0.29014274 -0.16810535 -0.10113886 -0.93914366 0.058194634 0.059684947 0.16463265 -0.6616505 0.6117767 -0.4664308 0.17492776 2.1575408 0.33098954 -0.7221349 0.72941303 -0.0767017 0.32484764 1.000576
600016 0.12445422 -0.34400344 0.35583878 -0.4983539 -0.04764294 -0.19133656 -0.3531202 -0.3706304 0.12513793 0.6287739 -0.17499343 0.010552249 -0.6272446 0.36429864 0.07193845 0.31011617 0.64040846 -0.010357165 -0.5190651 -0.101152755 -0.20341924 -0.5355873 -0.09953712 0.13736072 0.09705199 0.6305501 -0.046690866 -0.6477305 0.17297077 0.29633588 -0.018324021 -0.6264224
300207 0.2989137 0.34622008 -0.082343064 -0.25757378 -0.061337277 0.071517006 -0.64141995 0.12650594 0.10780073 -0.17183787 -0.48325506 -0.1327607 0.47193566 0.94429445 -0.093035795 0.4608005 0.68024427 0.23125629 -0.61059064 -0.37424657 -0.2610206 0.05402867 -0.18288554 0.5021952 -0.8281094 0.43417335 -0.4306713 0.06421778 -0.43796805 0.15281966 0.99967647 0.3917688
002044 0.059739914 0.05371662 0.47576052 -0.049011108 -0.42217192 0.22422326 -0.07755966 0.27870944 0.24768415 0.7511058 0.0041714096 -0.19488344 -0.21588007 0.8576858 0.14587285 0.6623823 1.1580623 0.19137901 0.13538936 -0.39427903 -0.20147921 -0.37195745 0.54188687 0.080140665 -0.162376 -0.23677637 0.09401003 0.100467965 -0.014489561 0.28705078 -0.4986859 0.24516906
300702 0.30709296 0.46148634 -0.12681554 0.555399 0.036988676 0.20457833 0.12066577 0.10137647 0.11518192 0.40215814 0.26731104 -0.21769884 -0.24001889 0.8233413 0.24075677 0.055504974 1.0072564 -0.0256845 0.329048 -0.029449405 0.8432102 -1.0638504 0.138969 0.27416912 -0.18746977 -0.22181697 0.036385536 -0.058483846 0.19782971 -0.6281361 0.6784232 -0.79621667
PLD US 0.92266524 0.64058524 -0.9367076 0.26550147 -0.80630773 2.6234934 -1.9933759 1.2428104 0.33810967 1.1497172 0.24696979 1.5028064 0.04343176 1.565158 -0.086728975 1.1144564 -0.9945256 -0.7807805 0.51872075 0.09962409 -0.14198776 -0.37410626 0.42260534 1.0843508 0.7707225 0.8562023 0.33747762 -0.2956397 0.34720513 -1.0163908 0.20117587 -0.08659682
601225 -0.20003334 -0.22287308 0.41653475 -0.56758356 -0.48707566 0.2946072 -0.23089632 -0.31263965 -0.037388626 0.039123606 0.4556897 -0.89464855 -0.14654821 0.52468127 0.14793092 0.5565034 -0.13382836 -0.047540523 -1.1585377 -0.40063402 0.30620837 -1.2320817 0.5382084 -0.16841179 -0.05299267 0.1674965 0.23995484 -0.32539377 0.09747093 -0.22787404 0.48425034 0.23487017
300782 0.3458829 0.33741337 0.7843176 -0.27072087 -0.26988837 -0.09393652 -0.07824564 -0.18937163 -0.54264575 0.014465975 0.21062632 0.23856485 0.3386471 0.45155492 0.086008266 1.0539874 0.56744546 -0.4897022 0.04638981 -0.38524446 0.26705483 -0.029539697 -0.0961355 -0.1020832 -0.6690264 0.435481 -0.7974363 -0.12122331 -0.22239262 -0.17161927 0.62818706 0.05723964
002202 -0.1078994 -0.1507577 0.2707541 -0.49292135 -0.3288762 0.42410994 0.14549072 -0.5186585 0.12961304 -0.044867 0.8070854 -1.1194136 -0.121700995 0.5029327 0.078544214 0.29829952 0.2125951 0.14168978 -1.1205667 -0.07143349 0.11037647 -0.89616424 0.25346127 -0.28459337 -0.22659442 0.62811553 -0.027631842 -0.38814774 -0.03241858 -0.12787607 0.31540674 0.523926
600161 0.41859925 -0.2108581 0.50018114 -0.5673332 -0.52747285 0.14817114 0.12214239 0.3766132 -0.26594844 -0.18294664 0.2533043 0.2511365 0.45101598 0.41687718 0.2442123 0.07347953 0.32165015 0.21280023 0.30214405 -0.7807814 0.15395376 -0.34599313 0.54640305 0.46353588 -0.35624373 0.45336294 -0.1123803 -0.1977575 0.5670333 0.24795274 0.09695029 -0.21059616
601100 -0.43448997 0.40523386 -0.027308166 -0.1562603 -0.3517551 0.309402 0.2989995 -0.02071759 0.2698708 -0.21269931 0.51553476 0.5842436 0.48511818 0.25447673 -0.04730482 0.5044929 0.33334786 -0.17937137 -0.2448538 -0.46503404 0.09650601 0.19773969 1.0418136 0.6356993 -0.49637985 0.4816111 0.033584148 -0.32946253 -0.108762205 0.4454088 0.487313 -0.08978234
MSFTUS 0.7667718 1.1752144 -1.0040514 0.33790845 -0.990123 1.9459018 -1.7449181 0.47808582 0.042670332 0.3774038 1.982596 1.4799476 -1.5516093 0.47457236 0.26528606 0.37808898 -0.09079731 -0.1423947 -0.23555085 0.89380836 -0.1749138 -0.97814 1.2441348 0.079710074 -1.2434201 2.1349463 -0.22184655 1.1061223 0.5867271 -0.7760627 0.15702434 0.9534691
600547 0.31562725 0.0043966584 0.3193907 -0.41730088 -0.082880825 -0.0048638536 0.27210084 -0.2577425 -0.18560183 0.05593471 0.5972464 -0.016028281 -0.10646674 0.74776703 -0.72633016 0.016085984 0.07178724 0.56994903 0.36028627 -0.71727395 -0.12374587 -0.6074419 0.8448744 -0.036647845 0.25198904 0.5374842 -0.46109793 -0.35908785 0.18038836 0.4732435 0.26835036 0.15852319
AAPLUS 0.76332676 1.1967663 -1.0087076 0.36894405 -0.9891013 1.9977459 -1.7445929 0.49864164 0.037176587 0.37002617 1.9891939 1.4655296 -1.578065 0.47592488 0.26157117 0.3432387 -0.08170364 -0.13457358 -0.24795677 0.8765772 -0.1720756 -0.97688305 1.2510091 0.081263684 -1.2694166 2.0872996 -0.19961812 1.112817 0.59248745 -0.7830713 0.16460288 0.92300415
600000 0.2051957 -0.282769 0.3124946 -0.6129916 0.030361634 -0.08416517 -0.38915125 -0.42940137 0.009425298 0.6978827 0.01787163 0.20628652 -0.59506184 0.33512375 -0.020452542 0.19193666 0.8371466 0.05875012 -0.6551123 -0.16634238 -0.20438927 -0.42111862 -0.030649425 0.062726445 0.09718514 0.6724368 0.18910354 -0.59454477 -0.11663423 0.06577638 -0.09285613 -0.62812173
000786 -0.28584024 0.4983605 0.13229446 -0.5522179 -0.084048316 0.24059397 -0.5428437 -0.101790495 0.3867057 0.5291123 0.23555323 -0.16254726 -0.28602654 0.369497 -0.057841506 0.61196715 0.7916351 0.100832835 -0.02631724 -0.41905135 0.1006491 -0.07029881 0.52136415 0.41824472 -0.380896 0.11303546 -0.5935041 -0.1998969 0.17379852 0.47155872 -0.2915526 -0.14935106
601186 0.07221724 0.13477236 0.41454157 0.2072789 0.3889331 0.30515227 -0.5939221 -0.10913071 0.2183982 -0.040157616 0.9468862 -0.083957225 -0.38086563 0.18338302 -0.79259384 -0.05023269 1.2116389 -0.23825051 -0.92269576 -0.10141274 -0.17793639 -0.022121897 0.15518117 0.22790506 0.36779734 0.5711937 -0.25757378 -0.42354062 -0.2330054 0.12837529 0.3746617 -0.15659887
300133 0.040697526 1.0720077 0.42348522 -0.45657444 0.47430658 0.21678446 -0.14688423 0.0075744716 0.14571255 0.39741364 -0.015113144 -0.26717025 -0.21279563 0.8027484 0.29030347 -0.018021185 0.09817214 -0.12958527 0.049855433 -0.0432089 0.7844775 0.13521458 -0.14520605 0.14336884 -0.8105457 0.44639686 0.35592064 -2.8216818e-05 0.027282886 0.7935152 0.17356138 0.5983972
1995 HK 0.71723115 0.6341636 -0.90206534 0.56049407 -0.1701537 1.7303866 -0.83204216 0.22140938 0.69627404 0.9036312 0.7946991 1.0741315 -0.54983354 1.2660371 0.46000445 -0.35343158 -1.808652 -0.92082465 -0.9546273 -0.26974943 0.43090495 -0.9158301 -0.5007344 0.3524945 0.19691113 1.4199642 -0.5751301 -1.0322989 1.1862568 -0.37443653 0.66069734 0.26555997
PLD 0.72846615 0.8996163 -1.4409504 0.7455836 0.6352669 1.5735303 -1.7526342 1.2722511 0.20062977 1.497792 1.8696347 0.06493536 -0.2880841 1.2423849 1.1078923 1.2118474 0.06381972 -0.59337157 -0.21086371 0.91375947 -1.0247618 -1.1640357 -1.2883744 0.10470774 -0.7617543 2.2090316 -0.22904116 -0.73555076 0.22121854 0.045801412 -1.128542 0.53015476
BBG000BLBWT6 1.2977066 0.14470075 -0.74399364 0.5924157 -0.63742846 2.2725828 -1.7502816 0.74593055 -1.3856859 2.2218263 0.77443254 -0.4572115 -0.58965987 0.22257413 0.33259675 -0.1642577 -0.042405315 -0.98599976 0.0689524 0.14562981 0.14539912 -0.6476942 0.48971808 -0.52688926 0.3205171 2.1426125 0.38462317 -0.6887044 0.77696264 -0.11557373 0.21501634 0.99834436
603939 0.57706 -0.21487285 -0.057852503 -0.19284599 -0.35582614 0.46318805 0.17609058 0.1069039 0.09120101 -0.5662659 0.7811413 -0.5226786 -0.21821705 0.41949412 -0.028250912 0.16010782 0.53958035 0.2976475 0.25823218 -0.8042013 0.12775831 -0.36446583 0.04663208 0.19905312 -0.3143376 0.6029921 -0.06319642 -0.37281847 0.10409679 0.22677459 0.15970773 0.046871565
600563 -0.30639845 0.7086584 0.25545922 -0.04437707 0.093774736 -0.2268191 0.37311503 0.7123618 0.3300199 0.05440791 -0.12266294 0.21153258 -0.08533838 0.96718645 0.08817191 0.11715493 0.19887629 -0.104244485 -0.1646918 -0.6730632 -0.63010347 -0.45171872 -0.07221659 0.2872946 -0.495363 0.8049467 -0.023663325 0.26299804 -0.27776536 -0.4134327 0.71905667 -0.07462172
300433 0.6885127 0.025077593 0.505944 -0.013939334 -0.16937558 -0.29795483 0.19925825 0.24717206 -0.34186485 0.8870251 0.88463193 -0.25780663 0.13226905 0.042128578 -0.03696296 0.48674142 0.22242123 -0.2657366 -0.09401641 -0.20751978 0.30581826 -0.013422162 -0.10898754 0.59443736 -0.44422784 0.35294086 -0.35265595 0.27954975 0.27651516 -0.21596122 0.35738224 -0.2825502
300699 0.8973753 0.97723264 0.27771428 0.12222776 -0.60701895 0.07050383 0.535095 0.23042282 0.106783874 -0.11987904 0.87006396 0.2997812 0.1529322 0.88601965 -0.1765741 0.1713358 0.66618633 0.14821923 -0.5985413 -0.22418654 0.42916128 -0.53869385 0.036082596 -0.26315263 -0.29214963 -0.3718213 -0.22818418 0.14153668 0.12720388 0.37340537 -0.42689717 -0.22111169
600522 0.7429628 0.39233246 0.5489983 0.1734826 0.5660109 -0.4587861 -0.100540325 -0.637059 0.008046499 -0.1785094 0.65301013 0.44366723 -0.3034487 0.6449058 0.7850585 0.4569441 0.3524371 -0.3111912 -0.20957518 -0.36123678 0.52466714 0.10760339 0.3687683 -0.048557337 -0.15182498 0.1399774 -0.24899739 0.21618897 0.32032928 0.295733 0.6310586 0.23537728
002595 -0.16314158 0.47364336 0.21959013 -0.19180599 0.008609404 -0.35020182 0.35265958 0.7160054 0.42218196 0.0042825234 -0.005200563 0.2354414 -0.4169498 0.8336124 -0.055315975 0.58601975 0.16968925 -0.14038819 -0.08465616 -0.3699897 -0.8129929 -0.5136168 -0.042104155 0.29137632 -0.52412033 0.56927824 -0.35667035 0.05903322 -0.045395944 -0.25972414 0.58922553 -0.2912311
300383 0.5753525 0.20575915 0.33099315 -0.10210368 0.5112544 0.13047491 0.12149954 -0.21702586 -0.38040137 -0.082292065 -0.040605534 0.19082455 -0.16980824 0.30580434 0.3239461 0.46469697 0.39204174 -0.42453322 -0.5555367 -0.32910997 0.7334563 -0.24631166 0.3327526 -0.29971492 -0.35006785 0.51602644 -0.4658698 0.35462332 -0.14391844 0.19291829 0.63491756 0.012910932
01177 0.26105976 -0.24502869 0.33008212 -0.17669638 -0.33936024 0.2523147 -0.23932517 0.380113 -0.8773681 -0.2774883 -0.2868833 0.22193281 -0.3181669 0.9883413 0.26386866 -0.101818666 0.112023875 -0.27082968 -0.49197987 -0.0773948 0.32402506 0.09794106 0.6861896 0.12059061 -0.17869282 0.23763843 -0.19180211 0.0344342 0.30578414 0.40286544 0.24307351 -0.46038434
MSFT UQ 0.6197276 0.16822436 -0.8529302 0.64974874 -0.76623565 2.5875943 -1.7054645 -0.088880286 0.51194084 1.6834167 0.66932756 0.8628003 -0.8983807 0.82718176 1.3461719 0.19873577 0.3483552 -2.4018173 -1.097063 1.0528545 0.19501567 -0.9865986 0.27141023 1.2862338 -0.447153 1.4439255 1.028841 0.97582376 0.55028343 0.83048546 -0.38903403 -0.13242806
700 H K 0.6822526 0.6132618 -1.10134 0.87831426 -0.4087567 1.7063017 -0.62594306 -0.1271614 0.5948425 0.97537607 0.836473 1.2193059 -1.1447648 1.5739563 0.26126394 -0.035289463 -1.467548 -0.90852976 -0.9820619 -0.17222823 0.46301514 -0.4957978 -0.37781343 0.46974218 0.5718412 1.2841413 -0.3567704 -1.0337483 0.64049774 -0.4244938 0.7460189 0.36886173
BBG000BLPS92 1.2809784 0.14174029 -0.7478236 0.557871 -0.6157205 2.3092685 -1.7446793 0.7054615 -1.3809053 2.2040713 0.7413632 -0.45933437 -0.56124413 0.19063042 0.34648344 -0.15524131 -0.02450297 -0.97743666 0.06271121 0.20101611 0.13960882 -0.62793475 0.4958345 -0.5329784 0.2850866 2.1555989 0.32273936 -0.71403384 0.8049875 -0.13400055 0.24661304 1.0145458
02899 -0.05083338 0.08491051 -0.02778727 -0.40646002 0.42872903 -0.13603877 0.09992551 0.31787956 -0.534403 0.25823438 0.31330076 -0.32735083 -0.5152112 0.8753362 -0.06395605 0.0854515 0.31437862 -0.5669564 0.1289764 0.06584939 -0.0808384 -0.16889714 0.4372846 0.18609247 -0.27348194 0.15153682 -0.43411496 -0.02602576 0.46692252 -0.14617074 0.61236876 -0.22008145
COP US 0.7845367 0.15197526 -0.051957417 0.30835593 -0.71606064 1.0818807 -1.3729185 1.1886098 0.5344767 0.9172381 0.28340295 1.6456548 -0.20565821 0.62865645 0.4364625 1.2754894 -0.9913773 -0.9772373 -0.46031457 0.25257495 -0.5216376 -0.5004833 0.6229642 0.0023307463 0.23635261 3.5083668 0.00577186 -0.4824654 0.1835462 1.0596943 -0.65528655 1.4085016
002123 0.09903499 0.49875355 0.021173261 0.14483106 0.053937007 -0.22206578 0.08852314 0.5858842 -0.2983024 0.2261897 0.25411606 -0.07163695 -0.5453482 0.07994177 0.7819255 0.26794368 0.71623623 -0.817034 -0.29665986 -0.4113901 -0.38506725 -0.19482985 0.73364663 0.25763693 -0.40754026 0.09276919 -0.7415567 -0.4162629 0.2555854 0.033415377 0.3403331 0.107889265
002773 -0.00051930745 0.30587018 0.3231364 -0.48998836 0.12427205 0.14801872 -0.2692832 -0.5558435 -0.44229048 0.10159707 0.19567588 -0.16499649 -0.25575113 1.0189699 -0.027283603 0.18344319 0.26016435 -0.36158842 0.529178 0.29115587 0.09584789 -0.17023596 0.31103167 0.64739245 -0.6062019 0.07093068 -0.46181142 -0.5646592 0.022777133 0.11028309 -0.5361786 0.2315846
BBG00LLV9WW6 1.2872242 0.16597597 -0.7609971 0.59292424 -0.6443212 2.3043747 -1.7776651 0.7168791 -1.3833977 2.1846445 0.7437489 -0.43612194 -0.588233 0.19441286 0.3188214 -0.17962517 -0.024886196 -1.0094936 0.07585158 0.16510193 0.16723831 -0.67200226 0.49138784 -0.5248376 0.33069867 2.1232672 0.3683918 -0.66138196 0.77930355 -0.08255389 0.24036023 1.0197027
02020 -0.15574524 0.16928612 0.48781863 -0.6504647 0.4360998 0.36039588 -0.15880634 0.9036818 -0.49871925 0.12231668 0.013605578 -0.11301086 -0.400707 0.6671945 -0.45269057 0.28237814 0.2917376 -0.28168076 -0.045977853 0.20752616 0.50451064 -0.39493307 0.49322048 -0.19046035 -0.40717244 0.30258307 0.037367836 -0.18270631 0.08217825 0.44453305 -0.19559221 -0.2108355
BBG000TF4XZ9 1.327152 0.15279879 -0.7457243 0.593595 -0.6185767 2.2873151 -1.8216227 0.7053955 -1.3724842 2.1829906 0.71441764 -0.4325947 -0.62083095 0.21267436 0.32697037 -0.16222596 -0.03000658 -0.96938264 0.08427308 0.14135402 0.16577686 -0.69574636 0.46960598 -0.54409057 0.3298604 2.1208806 0.36367458 -0.6673101 0.77888715 -0.07695635 0.20154151 1.0307755
COG US 1.009342 0.13737437 -0.02207925 -0.16013968 -1.0727273 1.4268204 -1.2425561 0.9942437 0.35300162 0.934719 0.6101139 1.3569573 -0.23382269 0.42772588 0.17098232 1.6294466 -1.2247607 -1.2456917 -0.44987896 0.2525961 -0.8304514 -0.43662274 0.24710788 -0.20737669 0.31119296 3.1417148 -0.13019292 -0.2808581 0.024533927 1.1546408 -0.3728154 1.3659327
601988 0.18651699 -0.29988146 0.3399476 -0.5433702 -0.07260198 -0.3299638 -0.12570442 -0.5338842 -0.21834776 0.57737267 0.06440225 -0.09944853 -0.4999134 0.38404727 -0.123269476 0.37139747 0.76185566 0.20768708 -0.57226175 -0.093495555 -0.20051306 -0.7142621 0.052631654 0.23232788 -0.11865971 0.6826394 -0.1152042 -0.7965195 -0.040680196 0.39506298 0.037709944 -0.4007737
AAPL UQ 0.58837366 0.16414265 -0.8588085 0.6332529 -0.74956626 2.6775208 -1.7206024 -0.09840535 0.5239007 1.7017715 0.64879775 0.8318012 -0.92314434 0.82169384 1.3235619 0.2105272 0.37177527 -2.3863745 -1.1135099 1.0012677 0.18370017 -0.9758574 0.27757877 1.2595497 -0.46612933 1.3947232 1.0533724 0.9840313 0.5886613 0.804802 -0.3569952 -0.14833832
603883 0.26627865 0.072025605 0.04166906 -0.09006981 -0.30792797 0.30670366 0.23376335 -0.0539977 -0.0059192567 0.09330299 0.29060772 0.099224165 0.093267806 0.48475355 0.82565624 0.10966461 1.0251806 -0.13016815 0.59009635 -0.70411575 0.12224349 -0.78596973 0.7366215 0.1758457 -0.027345615 0.22463611 0.22895113 -0.0042948904 0.13868614 -0.160761 -0.40841335 0.43163982
300558 0.4325999 -0.27579057 0.23646934 -0.15865347 -0.23764385 0.46374777 0.18244453 0.25179666 0.47827396 -0.50983226 0.021937322 0.52279127 0.18623845 0.46038404 0.038565308 0.21842134 1.3283917 -0.08920145 0.04717988 0.0077274824 -0.124992415 -0.30477372 -0.18421252 0.3910758 -0.7472181 0.22483219 0.30038685 -0.15744339 0.07806135 0.52174234 0.30471826 0.1953952
KYG8586D1097 0.94722474 -0.53249294 0.15816437 1.884226 -1.2651875 0.84494585 -2.619539 1.4015727 0.4450967 1.4000921 0.66744417 0.34551296 -1.6068337 1.2652789 0.62975276 0.7367822 -0.446065 -0.12641807 -0.38223565 0.67981315 -0.12541851 -1.7023436 -0.008051929 0.6700181 -1.1266805 1.1262066 0.30514732 -0.5895561 0.9702977 0.1668312 -0.042627733 1.6218741
01299 -0.1641248 -0.13508445 -0.060227674 -0.32366472 -0.080400296 0.15873547 0.11803239 0.55224 -0.7144434 -0.14496289 0.051739883 0.19884185 -0.58147866 1.3948563 -0.577035 0.28106174 0.24322672 -0.25756782 0.05175497 -0.07793742 0.35229012 0.026812552 0.5237149 -0.5459815 -0.0627408 0.50046414 -0.26940864 -0.25536248 0.20667137 0.177082 -0.13735333 0.051558793
HK0000069689 1.9161279 0.71630883 -0.68559736 0.46173793 -0.6029237 1.3075424 -1.5546246 1.9052252 0.77335054 1.4643997 0.793538 0.63225913 -0.8056107 1.3814929 1.1607246 0.43403244 -0.046790313 0.38494596 -1.1693735 0.76988167 -0.32664135 -0.22210556 0.23309597 -1.1269226 0.12260857 1.6759726 0.9408748 0.46447882 1.441404 0.24293897 0.54768914 -0.25078776
603899 -0.4348834 0.46538988 0.43808964 -0.38422394 -0.2769434 0.25547385 0.35481182 -0.27692372 0.059858084 -0.034805086 -0.15217365 0.55991524 0.026022792 0.76643854 0.0031647845 0.21188657 0.24342565 0.04802427 -0.51687187 -0.12376641 0.16345508 -0.06498673 1.2104057 0.60268146 -0.43732667 0.30392542 0.094541945 -0.11447013 0.12737502 0.19456698 0.27675366 -0.16296448
603368 1.1819838 0.1688639 1.0469853 0.38904163 0.13864757 -0.56980765 0.33836803 -0.53301 0.59658736 -0.18903121 1.4397933 0.86969507 -0.046521943 1.1526884 0.5346825 -0.076855 0.68287647 -0.20286646 -0.2669763 0.757354 0.48931053 -0.0013547025 0.5719454 0.3711686 0.29384607 0.8597292 -0.40682825 -0.52586716 0.11964627 -0.2723952 0.31514364 0.529697
600066 0.095979616 0.40949383 0.016338132 0.092693254 -0.02897236 -0.18078455 -0.01274536 0.4812005 -0.23965241 0.95398957 0.58135194 -0.6952677 0.092118494 0.53107566 0.1088935 0.08002359 0.6759529 0.18253724 -0.08478398 0.23062469 0.39196903 -0.56063235 0.27270615 0.9406152 -0.15624015 0.21326393 0.09722853 0.15654644 -0.022650242 -0.3870538 0.72570777 -0.67619824
300792 0.14926088 0.33164456 0.60716623 -0.07446645 -0.24786872 -0.14625898 -0.39828464 0.07640781 -0.20865755 -0.048265867 -0.36624515 0.16295752 0.13352394 0.8290111 0.31170458 0.2692194 0.84079987 -0.28617483 -0.16849212 -0.32369414 0.063589476 0.12404068 -0.5981087 -0.24309315 -0.85573465 0.3273689 -0.040299352 -0.43275928 -0.09018502 -0.05994829 0.5694801 0.6051089
300146 0.67791533 0.369636 0.13943426 -0.5124295 -0.12997225 -0.22305942 0.30993018 0.09740376 0.17734896 0.13651013 0.39811057 -0.2523769 -0.89733 0.50315785 -0.12565947 0.6786164 0.47733706 0.36011472 0.4801375 -0.107707046 0.7719168 -0.0045300806 0.23000011 0.65156645 0.41495952 0.60346335 0.31720436 -0.055219878 0.120776266 0.34364736 0.669243 0.42884463
BBG000BJ35N5 1.4453548 0.072913826 -0.60291606 0.6519933 -0.81936526 2.1686904 -1.7441868 0.5976597 -1.4378219 2.0685916 0.7989228 -0.3567924 -0.4387623 0.36561507 0.2614364 -0.353699 -0.011581638 -1.1102954 0.072889194 0.35961372 0.3731075 -0.72398466 0.45708787 -0.52735466 0.36328918 2.2204063 0.49133027 -0.4811815 0.6851164 -0.13797632 0.3221069 1.0482074
BBG000PZ8SG7 1.211747 0.14725141 -0.94367605 0.52048504 -0.5849702 2.2883277 -1.78073 0.7638401 -1.4131376 2.1499615 0.79787475 -0.4373809 -0.38576642 0.13369718 0.30068904 -0.2053583 -0.10689512 -0.91654855 0.05782501 0.08212718 0.17905448 -0.63122576 0.62271833 -0.43860948 0.12910251 2.205954 0.31614226 -0.74233156 0.7723083 -0.077435434 0.3767224 1.0045595
300188 0.32409167 0.24880299 0.3671478 -0.40522328 -0.076174 0.18579052 -0.06510802 0.41586477 0.11717062 0.29188156 -0.0018787575 -0.011269401 0.2805364 0.60828686 0.044718195 0.5961587 1.3093548 0.19826342 0.29402077 0.10442727 -0.03465942 -0.31504542 0.4645855 0.32363576 -0.37292966 0.31122512 0.014913748 0.56077206 -0.037461285 0.48698965 0.12698334 0.48920548
002332 0.39396203 0.543671 -0.21900396 0.44458145 -0.27718863 -0.13044356 0.19370268 0.08869544 0.14083098 0.4134398 0.5777503 0.09168161 0.10170938 1.020764 0.33148116 -0.07709219 1.2395529 0.23779029 0.24070854 0.092207454 1.0365462 -0.97267544 0.16029467 0.3855909 -0.30803204 -0.26942775 -0.42039892 -0.12836233 0.27822503 -0.4860957 0.5759957 -0.7221894
AMZNUS 0.7494429 1.1754208 -1.0215802 0.35382122 -0.9675263 1.9947631 -1.7478105 0.46856844 0.037769597 0.38071552 1.9646449 1.4741331 -1.561662 0.48088515 0.2856111 0.37195775 -0.07851291 -0.12121727 -0.22103925 0.88945365 -0.17211856 -0.94232684 1.2407007 0.08184686 -1.2872324 2.1084342 -0.20921628 1.1145917 0.6095938 -0.79557186 0.16900529 0.9450798
600845 0.4498375 0.30876556 0.6737166 -0.21607983 -0.482745 -0.34941056 -0.22846428 -0.17791428 -0.55451286 0.035855696 0.30330628 0.20970403 0.14824985 0.19719136 0.14924371 0.87768334 0.17993352 -0.40188277 0.10736073 -0.19599618 0.29492393 -0.4619244 0.025447525 0.08721087 -0.75685334 0.31554157 -0.808503 -0.23658927 -0.18853454 0.10221721 0.47629654 0.07590433
MSFT UW 1.0206522 0.42516762 0.3609605 0.9000765 0.04855017 1.4182491 -0.7926578 0.48729572 -0.46705934 1.0925201 0.71189 1.4454545 0.18188964 1.0154133 0.32718664 -0.10528516 -1.6157149 -1.0759498 -0.7199768 -0.008513362 -0.9223837 -1.3587203 -0.26360086 0.29819083 -0.5913404 1.0772284 1.4814467 -1.263842 1.0486125 0.037385926 0.13702318 0.13601601
601799 0.32352564 0.6150851 0.28130966 -0.17093405 -0.11865379 -0.115761906 0.27993998 0.556573 -0.62770855 0.72409225 0.15794833 -0.16785972 0.16178606 0.08541915 -0.064793475 0.60233283 0.5999327 -0.10550135 -0.18140791 0.38964167 0.023489105 -0.27309874 0.14005153 1.1603975 -0.2796274 0.42382702 0.25608394 0.28857324 0.01858945 -0.12482051 0.47331873 -0.062249657
DLR US 1.0469624 0.7604258 -0.8619259 0.10974418 -0.8220964 2.7371855 -2.1572864 1.47936 0.4191602 1.1610788 -0.14798515 1.3142902 -0.046018414 1.6571012 -0.000854067 1.0473821 -0.7762922 -0.53184813 0.6801461 0.23060441 -0.22659665 -0.63743854 0.61270505 0.90902305 0.72951174 1.1118636 0.24088913 -0.1500791 -0.05666322 -1.0773548 0.01345207 -0.013853938
GB0005405286 1.6902118 0.21090786 -0.9996191 0.7699077 -0.71181065 1.0812979 -1.149497 1.9858848 0.8489632 1.4856105 0.71370804 0.70175886 -0.22310816 1.4104259 1.4290915 0.6534669 0.15421613 -0.23673716 -1.6694115 0.8449076 -0.01455569 -0.28645033 0.08221846 -1.069579 -0.20924346 1.816986 1.281654 0.10660716 1.067146 0.2823201 0.7886938 -0.12341903
02313 -0.1992219 -0.2529344 -0.21448843 -0.22522128 -0.1283281 0.27241305 0.17313142 0.5335017 -1.0554805 -0.07122569 0.0034712635 0.16220897 -0.74776953 1.2429968 -0.53536344 0.30070904 0.1613435 -0.13733953 -0.14860451 -0.018078497 0.57769173 -0.1339102 0.5220123 -0.21631327 -0.34304023 0.53059006 -0.38230145 -0.22976314 -0.0042321878 0.41149703 -0.20158999 0.08444068
600801 -0.5127616 0.50097233 -0.20527837 -0.032594528 0.09437375 0.11662527 0.016485203 0.13405855 0.23360948 -0.020925606 0.7133197 0.42288253 0.054307707 -0.033686813 -0.35233086 0.7365509 0.80699325 -0.23148544 -0.1894644 -0.42779782 0.38047498 0.1815559 0.42313054 0.42646083 -0.50250244 0.59294105 -0.34089008 -0.5917283 0.15685228 0.5555426 0.1473567 -0.3740095
600486 0.1891666 0.2187384 0.49513996 -0.95196515 -0.1253691 -0.015577851 0.2680257 0.37910903 -0.027448287 0.10117481 0.50359064 -0.011388565 0.6684969 0.27499104 0.039513808 0.3546516 0.19578962 -0.16077109 -0.18974988 -0.40449423 0.15211111 -0.55176187 0.5986513 0.7105845 -0.37020022 0.26303965 -0.096060194 -0.13807781 0.70796824 0.018261828 0.014087119 -0.27382758
EQIX US 1.0289557 0.8998074 -0.92916894 0.028372208 -0.62140816 2.383406 -2.0949368 1.3774706 0.29400122 1.3185433 0.42683062 1.6904223 -0.13042755 1.6912605 -0.045440003 0.9930446 -0.79074997 -0.93780667 0.93821806 0.21452005 -0.15087496 -0.4438892 0.51139 1.0681622 1.0545647 0.83931845 0.52080584 -0.023051271 0.11247991 -0.62464553 0.16780639 -0.07992491
AMZN UQ 0.63201153 0.12981388 -0.8294477 0.6777761 -0.7646199 2.6250584 -1.7707225 -0.13929279 0.5329667 1.7272438 0.6447887 0.8498426 -0.91171443 0.83175325 1.2992774 0.15731159 0.4126796 -2.3600469 -1.099959 1.049561 0.20253798 -0.95642495 0.28733566 1.2815273 -0.4798496 1.3385538 1.0640961 0.96945614 0.58194643 0.77711225 -0.31368425 -0.11385163
600196 0.8044747 1.034646 0.3527025 -0.111467615 -0.5359689 0.08580162 -0.57931274 0.003939121 -0.31128547 -0.3199686 0.16123481 -0.64515334 0.39178428 0.6532929 0.008755461 0.18030137 0.48611438 0.19345346 -0.2676008 0.2978622 -0.22008607 0.10559826 0.2855882 0.65950346 0.36091542 0.4939749 -0.09444047 -1.2023989 0.08126607 0.10512019 -0.13581115 0.0406907
BBG000P2MWC9 1.2766919 0.151845 -0.75695795 0.57111007 -0.6752285 2.2665422 -1.735578 0.71661246 -1.4230664 2.1795344 0.7853814 -0.46591535 -0.5591919 0.21250361 0.34798023 -0.18677385 -0.06671047 -1.0442474 0.0744176 0.15770452 0.14588329 -0.6398856 0.50797945 -0.48346734 0.29035053 2.143112 0.38312107 -0.65755767 0.7553408 -0.11327692 0.28431356 0.9952691
AAPL UW 1.0416337 0.38353175 0.45904887 0.9666031 0.09276859 1.4156042 -0.74925554 0.37224337 -0.49530098 1.1244941 0.7266527 1.4097453 0.17981696 1.0355376 0.39151514 -0.10218444 -1.6267475 -1.0782313 -0.800659 0.0070728622 -0.905205 -1.3552969 -0.20847237 0.2705178 -0.55654055 1.1369154 1.4890088 -1.2289033 1.0543523 -0.020729221 0.13125916 0.088837676
600216 0.70610416 0.14253882 0.25437558 -0.10116604 -0.14848834 0.0187545 0.30505782 0.086215764 0.17107895 -0.457087 0.5707599 0.5380499 -0.16701208 0.6123503 0.3755117 0.15019447 0.95414084 0.61210924 0.011254142 -0.30427727 0.9280602 -0.550052 0.22896595 0.27372903 0.1621925 0.4412883 -0.49229056 -0.12359939 0.11014629 0.10632643 0.05571609 -0.28309354
601336 0.40231383 1.0444397 0.21354675 -0.70653105 -0.18962976 -0.14970292 -0.7011422 -0.18510251 -0.53293425 -0.11306749 0.26135492 -0.18929078 0.24207333 0.6329606 0.13254553 0.21836054 0.39082453 0.25234327 -0.2614347 0.5705437 -0.02505452 -0.44115347 0.05607988 0.7792529 0.45299917 0.30480543 0.016788075 -1.2685081 0.106443256 -0.17597531 -0.11677286 0.1582569
03323 0.15953591 0.032699123 -0.0016112836 -0.9018217 0.43219206 0.5285421 -0.2965885 0.6368698 -0.67674315 0.2869142 0.23618092 0.02337194 -0.6582462 0.46550727 -0.4097973 0.32368416 0.66804886 -0.06066733 -0.3188642 -0.06378553 0.30812505 0.094850406 0.35175827 0.19171013 0.08076672 -0.059268467 -0.19692403 -0.3384369 0.13147768 0.1257318 0.15364128 -0.4318873
000656 0.2960544 0.34614643 0.20653217 -0.7728468 0.020639334 0.17960398 -0.38271126 0.49098906 -0.14436825 0.4767511 0.1876516 0.10335316 -0.5166686 0.21872252 -0.3301898 0.24926451 0.8649228 0.20455419 -0.6503535 -0.5995489 0.2942768 0.16599004 0.37270916 0.3915077 0.26988035 0.27966112 -0.1166255 -0.37772986 -0.048045643 -0.203836 -0.066607565 -0.24576153
600837 0.30681533 -0.16286765 0.3535154 -0.43269104 0.3590342 -0.053553868 -0.087853506 0.038987283 0.22306956 0.6358633 -0.17985342 -0.05387733 0.50276315 0.88947934 -0.08225485 -0.00027527957 0.6768522 -0.50495744 -0.15950477 -0.5116917 0.29341084 -0.25867152 0.041732356 0.35660702 0.39094892 0.48412806 -0.4263249 -0.53920674 -0.19285142 0.4339913 0.013038914 -0.41436625
002241 0.57284397 0.27372 0.5397498 0.08104179 -0.06875201 -0.040857226 0.018597396 -0.02663275 -0.32845032 0.3160999 0.49745277 0.0061997506 0.44616863 0.26673394 0.12131874 0.56866664 0.032838248 -0.5667919 -0.036296036 -0.35867605 0.27630225 0.053101603 -0.083808966 0.45650694 -0.5803301 0.17019267 -0.5609768 -0.094135255 -0.27151048 -0.036583103 0.5382277 0.019003209
002508 0.25570843 0.23776145 0.5300285 -0.5196626 -0.1800036 0.060524676 -0.4146735 0.20025301 0.08862575 0.25066423 -0.052879237 -0.4832178 0.21667843 0.6186583 -0.065678954 0.463156 0.38954356 -0.1826424 0.013469309 -0.44465286 0.015402112 0.20392162 0.60994667 0.21333694 0.44042924 0.16606401 0.22960001 -0.79708546 0.032667812 0.2526779 0.51567847 0.18465698
002217 1.3398281 0.15122122 0.9731291 0.37233615 0.12255047 -0.59592015 0.43144906 -0.64864254 0.68480355 0.09345139 1.493439 0.89671564 0.0842432 1.3783107 0.60923237 -0.23398626 0.550872 -0.13088715 -0.61560667 0.5708103 0.60215026 -0.016412122 0.6040448 0.3226777 0.0013228663 0.7229307 -0.59208345 -0.3605842 0.12785605 -0.1018718 0.45871633 0.44780138
300315 0.44670326 0.615957 0.43906844 0.006119695 -0.14980155 -0.5600499 0.11583145 -0.035837628 -0.25283694 0.6982117 0.31922066 -0.04749993 -0.6051993 0.70885634 -0.43281698 0.68368804 0.19514614 0.3606308 0.0069096107 -0.26791275 0.3198979 0.053896394 0.21422185 0.40565467 0.45228878 0.48639697 0.18600819 0.4125199 0.20119032 0.7804319 0.4204607 0.47134295
000596 -0.21674763 -0.12530383 0.40792352 -0.39742535 -0.80267906 0.5000847 0.27049747 0.08641018 0.24340434 0.097258024 0.23011117 0.18054536 0.100793146 0.47070304 -0.16661026 0.019206299 0.25468385 -0.079172716 -0.6047487 -0.37765926 0.15998419 -0.046120673 1.1033925 0.3865824 -0.2735814 -0.04483893 0.23001899 -0.22903073 0.11849483 0.044530798 0.7348811 0.055839334
3690 HK 0.6508116 0.33482015 -0.82466424 0.9479488 0.07632891 1.8880149 -0.90667784 -0.19338109 0.40341514 1.0454456 0.6973913 1.2624263 -1.0707189 1.6290039 0.56218016 0.07475939 -1.4237634 -0.89092356 -0.9880205 0.2380366 0.47312912 -0.20522153 -0.5324442 0.44596934 0.43303135 1.2149538 -0.29523596 -1.3797553 0.4172548 -0.47456467 0.8938006 0.46608585
300502 0.49831644 0.40147126 0.69904035 -0.26789084 -0.3547041 0.07083492 -0.08328518 0.08971088 -0.19522901 0.38800865 0.6125207 0.057405695 0.16530009 0.33735824 0.10108166 0.5490855 0.10039581 -0.7193162 -0.13431038 -0.4042909 0.6332614 -0.009650569 -0.717097 0.14378178 -0.5094117 -0.06472227 -0.45127237 0.28447902 0.19586252 -0.071206726 0.55336946 -0.032442164
300725 -0.084812164 0.14028312 -0.023034744 0.18831629 -0.20991576 0.35278502 0.37910318 -0.0066124853 0.42581934 -0.5522256 0.44789293 0.8349131 0.11894268 0.21262711 0.09326073 0.4511394 1.0448107 -0.20973551 0.2535206 -0.46420133 0.33012557 -0.21712343 0.32340384 0.38095215 -0.74765664 0.52054703 0.23531315 -0.382919 0.094951466 0.6198624 0.06478064 -0.20731324
RIL IN 1.02049 1.109561 -0.8977126 1.7668749 -0.20806278 0.93617445 -0.58369255 0.98202264 -0.037757054 1.6357427 1.2171428 0.5812092 -0.9612535 1.3042622 0.20256421 0.78885174 -0.5983533 0.6669036 -0.5348695 0.20873323 -0.50882196 -0.63630176 1.656756 -0.75419563 -1.5570989 2.1788578 0.8003801 -1.8861558 0.03361067 -0.6507382 -0.29777214 0.7212735
603369 0.21177717 0.051393747 0.26293284 -0.16766293 -0.5026538 0.70622 0.33371073 -0.19203086 -0.0020156454 -0.04494838 0.1812622 -0.64895153 -0.39317745 0.20400228 -0.479328 0.19815947 0.6177015 0.002254574 -0.27489308 -0.3356067 0.2182372 -0.1936785 0.14544827 0.38131014 -0.5021342 0.06637796 0.18412648 -0.4999018 0.4696377 -0.088545136 0.6086167 0.25503978
600352 -0.18310177 -0.23049605 0.4973513 -0.67326236 -0.30763087 0.33307675 -0.16928692 -0.4847441 0.04363417 0.13995667 0.7769468 -0.9599128 -0.118523814 0.50432086 0.33070356 0.45780534 -0.061268292 0.12871827 -1.2229161 -0.18499328 0.18676989 -1.3215512 0.4186342 -0.21424119 0.11653587 0.595455 0.06103781 -0.5651108 -0.20680383 -0.1264257 0.33996567 0.33754545
603707 0.37684652 0.13891596 -0.39129317 0.038527943 -0.6139957 0.35651428 0.14275463 0.18577151 0.10791314 0.03482501 0.10999943 -0.016357249 -0.14459766 0.14313452 0.31278053 0.33178142 0.8012967 -0.24172775 0.6156053 -0.35698444 0.5939245 -0.75224525 -0.39194587 0.15378916 -0.44419077 0.26161727 -0.042607788 -0.597678 0.011030128 0.23618847 0.18278138 -0.28452054
002463 0.35123476 0.14788283 0.40666002 0.1293714 -0.19635127 0.13348605 -0.56587017 0.2921542 0.17054878 0.25095522 0.9088231 -0.1934219 0.0916314 0.10323275 0.11911731 0.504339 0.5802761 -0.52271277 0.20948754 -0.6387115 0.4929465 -0.21007323 -0.4917556 0.021865236 -0.34978497 0.06536319 -0.49508405 0.2278453 0.19526632 -0.3113174 0.35884786 -0.3900934
000708 0.32422766 1.0861241 0.59160566 -0.21444535 0.30806577 0.025949424 -0.050724525 0.6689544 -0.24481933 0.04811426 0.05084931 -0.05461159 -0.026943143 0.4723282 -0.29207596 0.06357531 0.19013803 0.3866172 -0.24237773 -0.4477913 -0.08271438 -0.5596807 -0.030584434 0.038941972 -0.17049678 -0.09816058 -0.88059974 -1.2254182 -0.18049714 0.21606441 0.484035 0.26224545
000625 0.12203743 0.46953717 0.051976044 -0.32113767 -0.6661004 -0.41638744 0.38255492 -0.14932223 -0.47706136 0.55156356 0.10583022 -0.28522024 0.43296203 0.7411867 -0.02981471 0.453625 0.69873947 0.54163504 -0.31104797 0.10340927 0.16685419 -0.22170623 0.078656755 0.32786542 0.10183907 0.6776228 -0.4545161 -0.522486 0.015542541 0.30874398 0.5415139 0.60862327
VRTX US 0.40922156 -0.88434505 -0.32009968 0.5349359 -0.26448137 2.2152474 -0.19698597 0.83325654 0.87982875 2.568822 1.2399397 1.3509774 -0.45072472 1.3257061 -0.0862036 0.15282072 -0.3665307 0.48695287 0.348822 0.41767684 -0.1701914 -1.5627587 -0.102744125 -0.22471079 -0.5427072 1.7713094 0.2456404 0.32582894 -0.1098047 0.23269418 0.3288986 0.665286
600998 1.0032101 0.41673788 0.21467279 -0.5105672 -0.09290332 -0.15018028 0.24364388 0.15416728 0.28681242 -0.63306355 0.30741382 0.21849878 -0.6921082 0.36234275 0.2430936 0.46641323 0.605715 0.14854696 0.6045923 0.026039418 0.73346466 -0.500898 0.04219082 0.6357606 0.4254846 0.8958296 0.0826802 -0.50874084 -0.21966681 -0.19060428 0.21622078 0.42140123
002292 -0.03807709 0.93961114 0.39955023 -0.39991695 0.5016074 0.2669274 -0.2554051 -0.041455284 0.24163856 0.53481245 0.14859733 -0.34772572 -0.212007 0.71764445 0.3017914 -0.09425329 0.11475704 -0.05689333 0.20490414 -0.15951446 0.65190697 0.08147358 -0.08198073 0.09394394 -0.8531765 0.47592467 0.26227212 -0.046080653 -0.09065909 0.83789545 0.21556179 0.6361255
AMG N US 0.35074717 -0.6912157 -0.22632004 0.3693675 -0.8285867 2.1458247 0.19570658 0.49089938 0.9920123 2.717944 1.3613011 1.4669279 -0.7027078 1.6618484 0.086019106 0.1625976 -0.4288596 0.369457 0.14529645 0.5041692 0.20051064 -0.8361706 -0.32758972 -0.035008185 -0.27954516 1.6855439 0.23535739 0.032745786 0.231349 -0.30384907 0.024843348 0.79896307
002373 0.111518376 0.5048639 -0.02191553 0.12591122 0.033459414 -0.12892175 0.043293506 0.59192884 -0.2439869 0.30096048 0.26472875 -0.09929679 -0.50812775 0.020794636 0.84383506 0.29292983 0.6578537 -0.7611935 -0.25420654 -0.4696441 -0.2148389 -0.1644322 0.7309017 0.18198933 -0.34127018 0.07703356 -0.73866767 -0.3043846 0.12540914 0.05546789 0.42809835 0.11554222
EQT US 0.99962705 0.10575128 0.024619434 -0.19461307 -1.0270878 1.4335134 -1.2221625 1.0604345 0.38566813 0.97362745 0.53957796 1.344745 -0.2489583 0.40544584 0.20262673 1.6283723 -1.2336092 -1.2621889 -0.46376833 0.20812172 -0.80365294 -0.41610548 0.2585858 -0.17182858 0.28245708 3.1723895 -0.12469409 -0.28353313 0.046553504 1.1185099 -0.331424 1.3813988
01093 0.39632186 -0.29331312 0.19662096 -0.29621667 -0.4199351 0.22992586 -0.27655485 0.42706162 -0.8571763 -0.19840889 -0.38100952 0.27887493 -0.1911337 1.0784739 0.15249787 -0.14297988 0.17791043 -0.26301137 -0.49532095 -0.09796165 0.19090308 0.13025269 0.7957611 0.18726087 -0.18025073 0.12565334 -0.2972907 0.1206531 0.3905295 0.3030976 0.19996658 -0.2702171
603338 0.31496528 0.12020783 -0.4078099 -0.43140954 -0.028673204 0.036141694 -0.75658953 0.31003985 0.13335876 -0.30670908 0.009517877 0.16705978 0.10789038 0.6262625 -0.15038878 0.5337161 0.60654217 0.11553071 -0.35472664 -0.47692224 -0.38538897 0.00612536 0.28803158 0.72146404 -0.6584188 0.34400985 -0.41844207 0.30520183 -0.19518618 0.32487145 0.7591674 -0.13981494
SWN US 0.9839536 0.10982541 0.005264985 -0.20244625 -1.0112866 1.4300714 -1.2194873 1.0492104 0.37844226 0.9572552 0.54316103 1.3422178 -0.24155326 0.40834334 0.19760007 1.6167649 -1.2340049 -1.244629 -0.44843853 0.2184619 -0.7886085 -0.43276706 0.24598801 -0.1561346 0.28828213 3.1803777 -0.11951218 -0.2555793 0.06856759 1.1350952 -0.346066 1.3727561
600760 1.1959848 0.24166167 0.07879284 0.23186487 0.53058445 -0.23192136 0.10599983 0.06794475 -0.7288997 0.4972125 0.29933602 0.35164875 0.568087 0.34589642 -0.06553865 0.96010715 0.5084815 -0.016304834 -0.43290308 -0.26477402 0.05971419 -0.8715395 0.4543951 0.60614693 -0.16369641 -0.018174278 -0.09403458 0.6064757 0.27396902 -0.08991285 -0.13637416 0.6570582
002850 0.031800408 0.79451156 0.62376356 0.106804065 -0.29308397 0.09927566 -0.34699687 0.17635754 -0.06233107 -0.11650478 0.0053404607 0.12452023 0.2706783 0.9889491 -0.046193473 0.042896826 0.82452077 -0.21351804 -0.426668 -0.6026119 0.017363733 -0.39707392 -0.64935017 -0.13090141 -0.4397024 0.40143302 -0.24250086 0.46502846 -0.5936334 -0.0038141385 0.5248376 0.8080458
JNJ US 0.13049302 -0.10569191 -0.78484714 0.30080095 -0.80640286 2.069982 0.104148805 0.035598714 1.0111597 2.4894223 1.1338354 1.4687686 -0.7302174 1.6427737 -0.38160613 0.3924097 -0.6284781 0.036136895 -0.11717618 0.42110273 0.0451109 -0.52687305 -0.7155662 0.19257705 -0.24281336 1.4741814 -0.064380355 -0.4332775 0.8296899 -0.52634907 0.05322804 0.867305
REGN US 0.36554042 -0.92602795 -0.27016014 0.48687947 -0.33921212 2.2131064 -0.1923821 0.8281869 0.96823144 2.571913 1.2210422 1.3842381 -0.36869496 1.3793234 -0.017724492 0.13276626 -0.4376305 0.5145623 0.3643851 0.40752694 -0.1414983 -1.5068061 -0.09278764 -0.19586217 -0.534009 1.7548785 0.23051624 0.26610097 -0.05175511 0.21534728 0.35897583 0.61844265
